tree
version=v4
num_class=1
num_tree_per_iteration=1
label_index=0
max_feature_idx=232
objective=binary sigmoid:1
feature_names=out_txn_count_90d out_txn_count_1d out_txn_count_2d out_txn_count_3d out_txn_count_5d out_txn_count_14d out_txn_count_21d out_txn_count_45d out_txn_count_60d out_txn_count_31_60d out_txn_count_61_90d out_txn_count_30d out_txn_count_7d out_txn_sum_90d out_txn_sum_1d out_txn_sum_2d out_txn_sum_3d out_txn_sum_5d out_txn_sum_14d out_txn_sum_21d out_txn_sum_45d out_txn_sum_60d out_txn_sum_31_60d out_txn_sum_61_90d out_txn_sum_30d out_txn_sum_7d out_avg_txn_amount out_std_txn_amount out_max_txn_amount out_min_txn_amount out_median_txn_amount out_unique_dst_accounts out_unique_txn_types out_unique_dst_accounts_7d out_unique_dst_accounts_30d out_active_days_30d out_active_days_7d out_active_days_14d out_active_days_21d out_active_days_90d out_p2p_count_90d out_bill_count_90d out_merchant_count_90d out_cashout_count_90d out_p2p_count_30d out_bill_count_30d out_merchant_count_30d out_cashout_count_30d out_max_txn_gap_days out_avg_txn_gap_days out_days_since_last_transaction out_days_since_first_transaction out_days_since_last_p2p out_days_since_last_bill out_days_since_last_merchant out_p2p_ratio out_bill_ratio out_merchant_ratio out_cashout_ratio out_p2p_ratio_30d out_bill_ratio_30d out_merchant_ratio_30d out_cashout_ratio_30d out_txn_count_1d_to_7d out_txn_count_3d_to_14d out_txn_count_7d_to_14d out_txn_count_14d_to_30d out_txn_count_21d_to_45d out_txn_count_7d_to_30d out_txn_count_30d_to_90d out_txn_sum_1d_to_7d out_txn_sum_3d_to_14d out_txn_sum_7d_to_14d out_txn_sum_14d_to_30d out_txn_sum_7d_to_30d out_txn_sum_30d_to_90d out_txn_count_recent_vs_prev30 out_txn_count_prev30_vs_old30 out_txn_sum_recent_vs_prev30 out_txn_sum_prev30_vs_old30 out_active_day_ratio_7d out_active_day_ratio_14d out_active_day_ratio_21d out_active_day_ratio_30d out_active_day_ratio_90d out_active_day_7d_to_30d out_active_day_14d_to_30d out_dst_diversity_7d_to_30d out_dst_per_txn_30d out_txn_per_active_day_30d out_txn_per_active_day_90d out_recency_x_count_30d out_recency_x_sum_30d out_activity_frequency_score in_txn_count_90d in_txn_count_1d in_txn_count_2d in_txn_count_3d in_txn_count_5d in_txn_count_14d in_txn_count_21d in_txn_count_45d in_txn_count_60d in_txn_count_31_60d in_txn_count_61_90d in_txn_count_30d in_txn_count_7d in_txn_sum_90d in_txn_sum_1d in_txn_sum_2d in_txn_sum_3d in_txn_sum_5d in_txn_sum_14d in_txn_sum_21d in_txn_sum_45d in_txn_sum_60d in_txn_sum_31_60d in_txn_sum_61_90d in_txn_sum_30d in_txn_sum_7d in_avg_txn_amount in_std_txn_amount in_max_txn_amount in_min_txn_amount in_median_txn_amount in_unique_dst_accounts in_unique_txn_types in_unique_dst_accounts_7d in_unique_dst_accounts_30d in_active_days_30d in_active_days_7d in_active_days_14d in_active_days_21d in_active_days_90d in_p2p_count_90d in_bill_count_90d in_merchant_count_90d in_cashout_count_90d in_p2p_count_30d in_bill_count_30d in_merchant_count_30d in_cashout_count_30d in_max_txn_gap_days in_avg_txn_gap_days in_days_since_last_transaction in_days_since_first_transaction in_days_since_last_p2p in_days_since_last_bill in_days_since_last_merchant in_p2p_ratio in_bill_ratio in_merchant_ratio in_cashout_ratio in_p2p_ratio_30d in_bill_ratio_30d in_merchant_ratio_30d in_cashout_ratio_30d in_txn_count_1d_to_7d in_txn_count_3d_to_14d in_txn_count_7d_to_14d in_txn_count_14d_to_30d in_txn_count_21d_to_45d in_txn_count_7d_to_30d in_txn_count_30d_to_90d in_txn_sum_1d_to_7d in_txn_sum_3d_to_14d in_txn_sum_7d_to_14d in_txn_sum_14d_to_30d in_txn_sum_7d_to_30d in_txn_sum_30d_to_90d in_txn_count_recent_vs_prev30 in_txn_count_prev30_vs_old30 in_txn_sum_recent_vs_prev30 in_txn_sum_prev30_vs_old30 in_active_day_ratio_7d in_active_day_ratio_14d in_active_day_ratio_21d in_active_day_ratio_30d in_active_day_ratio_90d in_active_day_7d_to_30d in_active_day_14d_to_30d in_dst_diversity_7d_to_30d in_dst_per_txn_30d in_txn_per_active_day_30d in_txn_per_active_day_90d in_recency_x_count_30d in_recency_x_sum_30d in_activity_frequency_score avg_balance_1d avg_balance_3d avg_balance_7d avg_balance_14d balance_min_7d balance_max_7d balance_std_7d zero_balance_days_7d balance_obs_7d avg_balance_30d avg_balance_31_60d avg_balance_61_90d balance_std_30d balance_min_30d balance_max_30d avg_balance_90d balance_std_90d zero_balance_days_30d balance_obs_30d median_balance_30d last_balance first_balance_90d zero_balance_ratio_7d zero_balance_ratio balance_cv_7d balance_cv_30d balance_1d_to_7d balance_3d_to_14d balance_7d_to_30d balance_14d_to_30d balance_drop_30d balance_recent_vs_prev30 balance_prev30_vs_old30 balance_last_vs_first account_age_days gender_idx region_idx account_type_idx out_txn_to_balance_ratio in_txn_to_balance_ratio net_flow_30d net_flow_90d in_out_amount_ratio_30d in_out_count_ratio_30d amount_per_active_day_90d
feature_infos=[0:401] [0:13] [0:17] [0:26] [0:40] [0:80] [0:114] [0:219] [0:276] [0:154] [0:146] [0:149] [0:48] [0:7584611.0499999924] [0:492149.33000000007] [0:635041.43999999994] [0:821566.22999999998] [0:1068126.1700000002] [0:1968905.3400000003] [0:2330842.1400000006] [0:4279842.4500000011] [0:5446657.049999998] [0:3275096.3699999996] [0:3405844.5599999991] [0:3124958.2699999982] [0:1179468.3400000003] [0:167859.10000000001] [0:141397.56209412258] [0:200000] [0:167859.10000000001] [0:167859.10000000001] [0:364] [0:5] [0:48] [0:134] [0:30] [0:7] [0:14] [0:21] [0:91] [0:384] [0:383] [0:385] [0:377] [0:135] [0:131] [0:142] [0:126] [1:9999] [1:9999] [1:9999] [8:9999] [1:9999] [1:9999] [1:9999] [0:1] [0:1] [0:1] [0:1] [0:1] [0:1] [0:1] [0:1] [0:1] [0:1] [0:1] [0:1] [0:1] [0:1] [0:1] [0:1] [0:1] [0:1] [0:1] [0:1] [0:1] [0:16] [0:15] [0:210651.45999999999] [0:206103.59999999998] [0:1] [0:1] [0:1] [0:1] [0:1.0111111111111111] [0:1] [0:1] [0:1] [0:1] [0:4.9666666666666668] [0:4.5116279069767442] [0:61.833218562495247] [0:366.18741690868103] [0:4.4065934065934069] [0:1117] [0:13] [0:24] [0:40] [0:64] [0:179] [0:245] [0:546] [0:742] [0:387] [0:354] [0:355] [0:84] [0:13293471.79999998] [0:390692.97999999998] [0:591155.37000000011] [0:771252.34000000008] [0:935534.28000000003] [0:2177950.5200000014] [0:2962056.2500000014] [0:6282763.25] [0:8748895.8199999947] [0:4578652.4699999988] [0:4264659.6900000004] [0:4170243.350000001] [0:1136923.3599999999] [0:200000] [0:141408.84751835032] [0:200000] [0:200000] [0:200000] [0:832] [0:3] [0:78] [0:284] [0:30] [0:7] [0:14] [0:21] [0:91] [0:866] none none [0:377] [0:286] none none [0:126] [1:9999] [1:9999] [1:9999] [1:9999] [1:9999] [9999:9999] [9999:9999] [0:1] none none [0:1] [0:1] none none [0:1] [0:1] [0:1] [0:1] [0:1] [0:1] [0:1] [0:1] [0:1] [0:1] [0:1] [0:1] [0:1] [0:1] [0:16] [0:15] [0:218599.10000000001] [0:225955.83999999997] [0:1] [0:1] [0:1] [0:1] [0:1.0111111111111111] [0:1] [0:1] [0:1] [0:1] [0:11.833333333333334] [0:12.274725274725276] [0:58.059261251535695] [0:366.18232936553022] [0:12.274725274725276] [0:6891928.3600000003] [0:6863054.2199999997] [0:6687472.4942857148] [0:6369119.5307142856] [0:6454713.3799999999] [0:6903873.1799999997] [0:347750.97375280928] [0:7] [7:7] [0:5814475.3443333339] [0:3709281.800999999] [0:1786650.7793333335] [0:711952.08827968233] [0:4776651.8700000001] [0:6903873.1799999997] [0:3618713.7441111109] [0:2168047.8298564702] [0:30] [30:30] [0:5682612] [0:6891928.3600000003] [0:740908.94999999995] [0:1] [0:1] [0:2.6457513110645912] [0:5.477225575051663] [0:7.0000000000000009] [0:4.666666666666667] [0:4.2857142857142865] [0:2.1428571428571432] [-2557695.7990000001:287501.15344444447] [0:143631.05800000005] [0:147023.36099999998] [0:4074296.8900000001] [213:1917] [0:2] [0:7] none [0:3124958.2699999982] [0:4170243.350000001] [-2894130.4700000016:2982805.3500000001] [-7584611.0499999924:8564436.7200000063] [0:2239692.4799999981] [0:270] [0:312298.78000000003]
tree_sizes=2869 3062 2955 3053 2957 3052 2969 3067 3065 3057 3162 2951 2973 3179 2970 3185 3160 2851 3062 2952 3145 3183 3078 3171 3062 3383 3297 3071 3166 3174 3281 3184 2962 3376 3181 3274 3394 3081 3376 3081 3289 3179 3086 3390 3189 3381 3289 3279 3286 2971 3497 3280 3287 3391 3072 3080 3284 3086 3182 3195 3380 3090 3220 3284 3297 3174 3299 3273 3063 3406 3189 3188 3098 3195 2975 3278 3206 3522 3411 3307 3321 3309 2976 3099 3414 3411 2993 3493 3207 3324 3307 2981 3528 3528 3509 3408 3214 3311 3311 3168 3098 2980 2978 3195 2888 3318 3204 3200 2994 3326 3206 3429 3433 3300 3316 3087 2892 3428 3110 3415 3536 3417 3122 3013 3210 3193 3202 2969 3223 3119 3307 3536 2898 3115 2995 3537 3224 3013 3116 3325 3206 3121 3430 3021 3316 3007 3005 3003 3445 3436 3550 3217 3317 3549 3432 3346 3109 3004 3223 3667 3232 2904 3213 2892 3235 2791 3236 2901 2787 3018 2913 3003 3101 3130 2882 3016 3017 3020 3532 3121 2795 3015 3336 2673 3318 3452 2898 2999 3018 3120 3229 3329 3445 3007 3011 3131 3010 2878 2901 2806 3336 3652 3224 2679 3227 2790 3222 3447 2788 2778 2999 3130 3090 2683 3008 3343 2569 2905 3335 2893 2905 3233 3109 3112 2998 3328 3447 3106 3448 3345 3124 3354 3442 3014 2905 2685 2791 2597 2883 2587 3017 3025 3024 3233 3330 2789 2690 2787 2801 2678 2913 3114 3031 3027 3008 2901 2694 2794 3007 2575 3013 2590 3448 2470 3010 2682 2905 3030 2685 2686 2909 2897 2802 2906 3022 3024 3129 3125 2695 2691 2914 2797 3005 2574 2470 2803 3022 2907 2905 3007 2693 2575 3249 2897 2463 2581 2574 3018 3020 2580 2796 2583 2801 2787 3005 2473 2794 2783 2680 2782 2777 2684 2570 2898 2801 2887 2463 2584 2792 3016 2484 2800 2779 2796 3122 2688 2581 2685 2587 2797 2909 2467 3005 2797 2794 2784 2796 2798 2801 2808 2592 2696 2484 2900 2684 2791 2804 2792 3020 2790 2807 2367 2685 2466 2878 2792 2783 2367 2675 2472 2580 2691 2490 2361 2907 2680 2797 2653 2656 2542 2588 3008 2668 2589 2687 2464 2587 2793 2572 2697 2789 2919 2467 3021 2584 2916 2783 2686 2688 2603 2796 2812 2687 2586 3018 2660 2807 2484 2933 2793 2911 3011 2361 2926 2916 3027 2688 2787 3031 2811 2913 2998 2695 2804 3029 3026 2925 2913 3144 3146 3022 2920 2912 2810 2809 2788 3040 3022 3338 3133 3145 3034 3014 3121 2998 2912 2925 3254 3020 2915 2900 2802 3007 2903 2908 3125 3126 2922 3117 2912 3025 3030 2695 3223 3018 3121 3006 3015 2999 2922 2906 2807 3119 2904 3132 3358 3123 2795 2790 2871 2902 3198 3220 2885 2907 3101 2906 2669 2931 2778 3003 3006 3117 2692 2590 3015 3018 2806 3021 2822 2812 2806 3002 2789 2790 2675 2700 2569 2791 2645 2693 2549 2795 2903 3016 2465 2579 2782 2580 2579 2695 2795 2789 2260 2811 2809 2793 2675 2695 2798 2476 2488 2810 2606 2358 3233 3131 2695 2581 2804 2880 2910 2260 2376 2903 2261 2817 2667 2693 2461 2264 2701 2698 3029 2793 2252 2907 2373 2239 2370 2928 2458 2589 2911 2156 2484 2359 2465 3013 2811 2682 2472 3003 2475 2807 2363 2461 2568 2456 2467 2354 2793 2698 2797 2923 3019 2818 2781 2473 2469 2143 2815 2459 2246 2371 2486 2799 2476 2685 2685 2153 2267 2682 2885 2583 2257 2580 2579 2589 2811 2585 2578 2819 2253 2463 2262 2552 2575 2925 2691 2575 2269 2680 2270 2361 2364 2469 2492 2472 2348 2267 2370 2364 2373 2250 2690 2585 2581 2253 2920 2357 2486 2381 2899 2599 2679 2483 2472 2266 2226 2246 2589 2803 2591 2479 2362 2923 2453 2603 2484 2356 2459 2577 2150

Tree=0
num_leaves=26
num_cat=0
split_feature=38 5 0 66 5 0 194 10 50 68 0 50 50 50 10 36 84 0 92 84 194 38 76 68 66
split_gain=1.71196e+06 91351.9 47909.7 11479 8922.56 10590.3 8274.18 5760.67 2155.12 2104.47 1719.76 1423.77 1169.79 1138.38 882.825 828.681 489.758 438.818 355.142 124.174 86.9613 73.8289 39.4441 31.4087 16.7115
threshold=3.5000000000000004 1.0000000180025095e-35 19.500000000000004 0.20256410256410259 1.5000000000000002 19.500000000000004 1.5045162013982438 24.500000000000004 5.5000000000000009 0.063164893617021281 50.500000000000007 22.500000000000004 8.5000000000000018 5.5000000000000009 30.500000000000004 1.5000000000000002 0.2388888888888889 51.500000000000007 54.152254677328457 0.16111111111111112 2.0259207193113 5.5000000000000009 0.50362318840579723 0.22179813401187451 0.42600644122383258
decision_type=2 2 2 2 2 2 2 2 2 2 2 2 2 2 2 2 2 2 2 2 2 2 2 2 2
left_child=1 6 18 7 8 13 -1 12 16 14 -7 19 -4 -6 -5 -11 -3 -10 20 -8 23 -22 -9 -2 -20
right_child=2 4 3 9 5 10 11 22 17 15 -12 -13 -14 -15 -16 -17 -18 -19 24 -21 21 -23 -24 -25 -26
leaf_value=-1.8610677652391707 -1.896137715018767 -1.8897303531005418 -1.928131156579765 -1.9283471383131106 -1.8962823421528869 -1.9275573843939622 -1.8733873917652142 -1.8659519216718654 -1.8809159442696033 -1.9347660603240775 -1.8694578574912026 -1.8667912592162759 -1.9049581868833678 -1.8871715016747912 -1.8969354151562619 -1.9392056348840492 -1.9077898005651686 -1.8629747235645875 -1.8837921949036902 -1.8679603534463123 -1.8948720669728958 -1.9043958365053102 -1.8808007545445011 -1.9083277541158361 -1.8911666799055544
leaf_weight=33444.136636286974 37.722628109157085 2104.5389457568526 507.70486829429865 903.35228587687016 2617.4654848948121 879.0201260894537 4803.8485435321927 139.97111386805773 5521.5415235087276 3446.1380769684911 37.720030628144741 9371.8645547255874 243.22950089722872 1868.1943325996399 70.759485028684139 46041.934793621302 133.39270310848951 125.82668397575617 244.5698994025588 739.67180100083351 1217.5208001211286 106.70093805342913 95.453311823308468 101.28999189287424 236.39515043795109
leaf_count=44117 170 8683 4009 7153 12486 6892 12129 234 18023 29462 64 17612 1361 7237 333 413655 781 171 855 1459 5634 587 297 597 999
internal_value=-1.90034 -1.86906 -1.93647 -1.93807 -1.88931 -1.89798 -1.8635 -1.90867 -1.88339 -1.93865 -1.92499 -1.86895 -1.92056 -1.89246 -1.92597 -1.9389 -1.89078 -1.88048 -1.89403 -1.87263 -1.89637 -1.89558 -1.87131 -1.9044 -1.88717
internal_weight=115040 61647.2 53392.7 51448.5 13287.7 5402.4 48359.5 986.359 7885.3 50462.2 916.74 14915.4 750.934 4485.66 974.112 49488.1 2237.93 5647.37 1944.2 5543.52 1463.23 1324.22 235.424 139.013 480.965
internal_count=595000 129654 465346 456504 54337 26679 75317 5901 27658 450603 6956 31200 5370 19723 7486 443117 9464 18194 8842 13588 6988 6221 531 767 1854
is_linear=0
shrinkage=1


Tree=1
num_leaves=27
num_cat=0
split_feature=6 5 49 66 212 50 49 49 12 49 67 5 50 5 12 8 68 12 50 8 34 66 49 67 6 42
split_gain=1.58838e+06 66511.8 54966.7 14412.1 6670.35 6085.62 4699.95 4447.62 3351.67 1556.87 1551.9 1225.48 1073.74 866.897 656.893 591.567 493.581 368.479 266.612 70.0723 59.4614 53.6503 43.446 39.9101 18.8412 6.10716
threshold=3.5000000000000004 1.0000000180025095e-35 5.0294117647058831 0.18301435406698566 1.0000000180025095e-35 6.5000000000000009 2.1445993031358888 5.0294117647058831 1.5000000000000002 1.5521778584392016 0.14495798319327732 1.5000000000000002 8.5000000000000018 1.5000000000000002 1.5000000000000002 11.500000000000002 0.16594202898550728 2.5000000000000004 10.500000000000002 12.500000000000002 6.5000000000000009 0.42600644122383258 4.2052631578947377 0.22335600907029482 2.5000000000000004 4.5000000000000009
decision_type=2 2 2 2 2 2 2 2 2 2 2 2 2 2 2 2 2 2 2 2 2 2 2 2 2 2
left_child=1 4 3 6 -1 7 23 11 9 -5 22 -3 -8 18 -9 -15 21 -10 -7 20 -18 -4 -6 -2 -12 -21
right_child=2 5 16 8 10 13 12 14 17 -11 24 -13 -14 15 -16 -17 19 -19 -20 25 -22 -23 -24 -25 -26 -27
leaf_value=0.064744890034744304 0.060563170463339172 0.028533345522395188 0.044887758615693107 0.047636736239676063 0.062803555101717909 0.044934948662369849 0.0031914378791211505 0.037794949905922644 -0.0071766580362321248 -0.001626661635017936 0.053898361081960201 0.00070530334598015903 0.026005590208117164 0.042064726097587275 0.030135999021316143 0.025223822559750631 0.032794115066815697 -0.0096575032812444474 0.049568952734632292 0.025797671135620794 0.022920496102081463 0.036998481440276461 0.059314289740333287 0.046822359280075165 0.047441948840891895 0.016031951992258625
leaf_weight=34121.70360147953 176.0458000227809 176.87748557329178 326.5843860656023 46.554733924567699 1255.3945533260703 2116.7255820706487 363.41628234088421 4273.6217023059726 5166.4797691404819 3889.5702967196703 4583.3309527039528 364.39330084621906 274.44354923069477 1407.814829222858 1165.0949104428291 197.29446401447058 1672.9216626510024 41667.94322925806 3074.6202497109771 36.433610416948795 79.943102270364761 264.48022170364857 10518.01832998544 97.922117069363594 246.08762809634209 37.322592295706272
leaf_count=42550 286 884 1081 132 1832 7009 2800 17441 45541 32001 10924 2899 1443 5116 5664 1078 7695 377771 8785 187 441 1092 19092 296 728 232
internal_value=0.0284809 0.0580414 -0.0062174 -0.00811798 0.0625195 0.0402529 0.0261701 0.0338002 -0.00873527 -0.00100978 0.0579355 0.00990569 0.0130839 0.0459137 0.0361712 0.0400444 0.034372 -0.00938436 0.0477053 0.0319863 0.0323831 0.041554 0.0597014 0.0561859 0.0535977 0.02167
internal_weight=117601 63501 54100.1 51682.4 50724.5 12776.4 911.828 5979.99 50770.5 3936.13 16602.8 541.271 637.86 6796.46 5438.72 1605.11 2417.69 46834.4 5191.35 1826.62 1752.86 591.065 11773.4 273.968 4829.42 73.7562
internal_count=595000 124002 470998 460270 75126 48876 4825 26888 455445 32133 32576 3783 4243 21988 23105 6194 10728 423312 15794 8555 8136 2173 20924 582 11652 419
is_linear=0
shrinkage=0.00871456


Tree=2
num_leaves=26
num_cat=0
split_feature=6 18 0 91 194 4 0 93 12 9 67 37 37 0 37 67 69 12 91 0 91 193 76 74 6
split_gain=1.47183e+06 58131.7 55150.9 11762.3 5954.72 5412.79 3817.59 3459.74 3107.21 3695.56 1189.65 1033.62 857.67 822.941 642.02 474.16 470.581 451.417 440.001 330.585 83.0616 138.237 46.0457 19.6084 6.28771
threshold=3.5000000000000004 1.0000000180025095e-35 19.500000000000004 20.758840626872388 1.5045162013982438 1.0000000180025095e-35 21.500000000000004 0.56070758509782914 1.5000000000000002 32.500000000000007 0.14495798319327732 1.5000000000000002 1.5000000000000002 19.500000000000004 1.5000000000000002 0.23606811145510839 0.21886405109489054 1.5000000000000002 15.28190177913759 46.500000000000007 6.5539334040258117 4.2750000000000012 0.39827586206896559 0.58636558472018174 2.5000000000000004
decision_type=2 2 2 2 2 2 2 2 2 2 2 2 2 2 2 2 2 2 2 2 2 2 2 2 2
left_child=1 4 18 8 -1 11 17 12 9 -4 22 19 -5 -13 -8 -10 -9 -7 20 -3 21 -2 -6 -22 -12
right_child=2 5 3 7 10 6 14 16 15 -11 24 13 -14 -15 -16 -17 -18 -19 -20 -21 23 -23 -24 -25 -26
leaf_value=0.061174876424910062 0.018097131335109852 0.044666188606234392 -0.0025087539443248478 0.025092470678803967 0.057020189901967229 0.035612766699152122 0.022497005414883503 0.057643715769567595 0.0054170276462658278 0.051517491955421678 0.05124171736267228 0.03943284980208546 0.0054417730351990004 0.020610978980777902 0.00019905247370100867 -0.00940505120854759 0.030128279057692775 0.02897618430609988 0.041853915349721729 0.060306632263387359 0.035216780448040788 0.030809222937312149 0.054662914436513277 0.028845984689937001 0.045409347100724556
leaf_weight=36864.10373031348 85.495910994708538 6008.4341175705194 3626.6630262583494 248.98259963840246 8168.2757693901658 3595.8266734927893 141.8216607645154 168.52448819577694 162.47847137600183 95.988170742988586 4594.4506437778473 1646.050311408937 520.06121062487364 209.64768175780773 306.01274639368057 46425.193846955895 81.481388732790947 1123.2901574447751 439.08050084859133 127.08827406167984 726.70522175729275 1121.1577531546354 3197.5467080771923 145.9164719954133 248.42462641745806
leaf_count=44114 500 18320 30181 1298 13622 14603 775 273 1221 215 10598 5976 3890 1218 2449 422729 380 5373 1478 162 3000 5143 6081 690 711
internal_value=0.0276443 0.0551536 -0.00619243 -0.00814662 0.0592207 0.0387399 0.0317448 0.0211266 -0.00874077 -0.00107722 0.0547663 0.0432497 0.0118765 0.0373426 0.00736455 -0.00935295 0.0491217 0.0340519 0.0336016 0.045018 0.0318035 0.0299555 0.0563709 0.034251 0.0509696
internal_weight=120079 66231 53847.7 51329.4 53072.8 13158.2 5166.95 1019.05 50310.3 3722.65 16208.7 7991.22 769.044 1855.7 447.834 46587.7 250.006 4719.12 2518.36 6135.52 2079.28 1206.65 11365.8 872.622 4842.88
internal_count=595000 124002 470998 460187 75126 48876 23200 5841 454346 30396 31012 25676 5188 7194 3224 423950 653 19976 10811 18482 9333 5643 19703 3690 11309
is_linear=0
shrinkage=0.00871456


Tree=3
num_leaves=27
num_cat=0
split_feature=35 50 66 93 93 67 5 49 85 17 50 36 10 76 92 5 8 38 67 5 50 15 5 72 50 72
split_gain=1.3662e+06 64122.8 31092.8 16494 7005.57 6163.35 4560.22 3571.94 3498.31 2675.34 1561.51 1294.34 1157.37 1093.54 618.05 595.54 491.334 420.288 389.492 323.957 284.803 164.726 60.1074 40.1349 30.8615 22.6849
threshold=5.5000000000000009 12.500000000000002 0.16869918699186995 0.22792207792207794 0.25568475452196388 0.11237373737373739 1.5000000000000002 2.1445993031358888 0.06458333333333334 1.0000000180025095e-35 8.5000000000000018 1.5000000000000002 29.500000000000004 0.12613636363636366 80.988421812222455 1.5000000000000002 14.500000000000002 2.5000000000000004 0.14495798319327732 1.5000000000000002 16.500000000000004 102.83000000000001 1.5000000000000002 0.96533737722853996 39.500000000000007 0.6154364593074696
decision_type=2 2 2 2 2 2 2 2 2 2 2 2 2 2 2 2 2 2 2 2 2 2 2 2 2 2
left_child=1 4 7 21 9 13 18 -2 12 19 16 -10 -5 24 -8 -11 -9 -12 -6 -1 22 23 -7 -4 -3 -23
right_child=2 5 3 8 6 20 14 10 11 15 17 -13 -14 -15 -16 -17 -18 -19 -20 -21 -22 25 -24 -25 -26 -27
leaf_value=0.042110638278987915 0.054882285863118753 0.05660310092902765 0.034188016209520354 0.0050177988887961334 0.048645172943729026 0.04655823663947424 -0.0034890418238232731 0.034078964907335113 -0.0041309641999524816 0.035888683006622957 0.046057558727404815 -0.0093890484089852577 0.040403683798123355 0.053787134701128968 0.02038100292172098 0.030016867042792588 0.0065696730791804459 0.02833409312110071 0.029424061500418392 0.03759897219952172 0.050160200031352048 0.016791117867804302 0.037254176348359619 0.024885638929903069 0.057912949513458205 0.025484540679093868
leaf_weight=4062.0250388011336 443.93323594331741 8888.9100061804056 538.31365417689085 878.39356958866119 151.7636713758111 3011.1912618800998 594.69709982722998 56.156303770840168 3868.7047473862767 2276.296630769968 167.30350123345852 45198.478077724576 73.712156601250172 7310.8179172053933 92.768892623484135 3648.9770023524761 320.78558923304081 333.4785328656435 220.97741921246052 2248.2076244056225 4397.378984592855 62.849837690591812 128.19271817058325 81.966536991298199 33284.828827813268 134.52957221120596
leaf_count=12313 713 11758 2161 6573 357 7585 5023 216 32971 8639 411 414487 237 12004 536 16280 2321 1532 989 8054 9184 361 459 403 38772 661
internal_value=0.0268617 0.0519284 -0.00693265 -0.00801831 0.0346805 0.0559482 0.0131407 0.0347529 -0.00865365 0.0365432 0.0244262 -0.00897481 0.0078712 0.0570745 -0.000193033 0.0322891 0.010898 0.0344847 0.0375628 0.0405211 0.0485341 0.030741 0.0462129 0.0330817 0.0576407 0.023008
internal_weight=122476 70317 52158.6 50836.9 13295.7 57021.3 1060.21 1321.66 50019.3 12235.5 877.724 49067.2 952.106 49484.6 687.466 5925.27 376.942 500.782 372.741 6310.23 7536.76 817.66 3139.38 620.28 42173.7 197.379
internal_count=595000 131953 463047 457854 52191 79762 6905 5193 454268 45286 4480 447458 6810 62534 5559 24919 2537 1943 1346 20367 17228 3586 8044 2564 50530 1022
is_linear=0
shrinkage=0.00871456


Tree=4
num_leaves=26
num_cat=0
split_feature=35 50 5 93 93 93 194 5 68 90 50 39 17 50 12 38 50 5 38 5 15 50 50 200 42
split_gain=1.27631e+06 57135.4 28607.8 11078.4 6818.66 6475.95 6152.88 4324.19 3184.02 3077.79 2777.7 2472.52 2433.75 1425.99 774.828 750.316 581.78 544.829 323.117 291.198 134.203 90.6936 88.7206 57.5273 42.6841
threshold=5.5000000000000009 12.500000000000002 2.5000000000000004 0.22792207792207794 0.56070758509782914 0.25568475452196388 1.5045162013982438 1.5000000000000002 0.063164893617021281 1.6173341677096371 8.5000000000000018 19.500000000000004 1.0000000180025095e-35 19.500000000000004 2.5000000000000004 2.5000000000000004 8.5000000000000018 1.5000000000000002 2.5000000000000004 1.5000000000000002 102.83000000000001 27.500000000000004 15.500000000000002 3533.8345519513355 5.5000000000000009
decision_type=2 2 2 2 2 2 2 2 2 2 2 2 2 2 2 2 2 2 2 2 2 2 2 2 2
left_child=1 5 4 20 10 12 -3 18 9 -5 11 -2 19 22 -10 -12 -9 -14 -7 -1 23 -15 -8 -4 -22
right_child=2 6 3 8 -6 7 13 16 14 -11 15 -13 17 21 -16 -17 -18 -19 -20 -21 24 -23 -24 -25 -26
leaf_value=0.040511650978213992 0.03289058499283197 0.055289008205244003 0.032562739622811192 -0.00014063435345429881 0.05415811617641457 0.041658934915524498 0.04375090378665155 -0.0036430670411392221 -0.0064881475095363555 0.041457768806409008 0.043082810578915914 0.001961866080762585 0.034670931962859503 0.049663641170557805 -0.0096119277434498218 0.023174656809057042 0.018302119530496517 0.029116877866919987 0.023058612478079398 0.036281379163231868 0.024560193874465924 0.05176647745265113 0.046756826933068325 0.021523256191990275 0.01397450653008582
leaf_weight=4185.1102147772908 237.60066464543343 40163.358886286616 375.75129095464945 810.84299685806036 411.1850455775857 267.3145889043808 2450.8457930088043 581.26340977847576 7120.1779006645083 159.24582335352898 199.13242988288403 1074.467861354351 2335.5446252375841 5850.1972415447235 40677.571435593069 580.35631380230188 106.05572067946196 3728.7115907222033 115.48652341961861 2309.3751943409443 106.91661878675222 7431.4847475886345 3385.2436334267259 68.085720099508762 62.983185358345509
leaf_count=12313 938 44326 1503 6494 579 768 6269 4935 63171 477 512 8431 8639 10469 376729 2981 624 16280 578 8054 518 11405 7293 341 373
internal_value=0.026128 0.0496372 -0.00690885 -0.00836605 0.0218191 0.0335345 0.0533374 0.0129062 -0.00882976 0.00678279 0.0153961 0.00762344 0.0352887 0.0492297 -0.00914708 0.0284006 -0.000190963 0.0312715 0.0362645 0.0390242 0.0283471 0.0508511 0.0455166 0.0310227 0.0209473
internal_weight=124794 72910 51884.3 49381.6 2502.74 13628.9 59281.1 1070.12 48767.8 970.089 2091.56 1312.07 12558.7 19117.8 47797.7 779.489 687.319 6064.26 382.801 6494.49 613.737 13281.7 5836.09 443.837 169.9
internal_count=595000 131953 463047 449606 13441 52191 79762 6905 446871 6971 12862 9369 45286 35436 439900 3493 5559 24919 1346 20367 2735 21874 13562 1844 891
is_linear=0
shrinkage=0.00871456


Tree=5
num_leaves=27
num_cat=0
split_feature=6 0 50 68 212 10 50 39 5 5 49 50 5 68 5 6 69 68 0 0 49 190 92 200 37 0
split_gain=1.19667e+06 50361.8 40725.4 12319.5 4576.05 4099.68 3495.5 3356.73 1814.16 1587.57 1052.97 1030.43 980.727 760.201 487.416 425.989 393.885 381.7 285.973 188.314 56.7711 46.0207 51.021 23.8115 23.7481 18.0155
threshold=3.5000000000000004 19.500000000000004 13.500000000000002 0.05594679186228483 1.0000000180025095e-35 27.500000000000004 6.5000000000000009 19.500000000000004 2.5000000000000004 1.5000000000000002 2.1445993031358888 22.500000000000004 1.5000000000000002 0.12599206349206352 1.5000000000000002 1.5000000000000002 0.21886405109489054 0.16594202898550728 51.500000000000007 15.500000000000002 5.2899159663865554 1.3878571428571431 19.553908941479801 3395.3318214762289 2.5000000000000004 15.500000000000002
decision_type=2 2 2 2 2 2 2 2 2 2 2 2 2 2 2 2 2 2 2 2 2 2 2 2 2 2
left_child=2 17 6 5 -4 9 7 14 10 -3 -5 19 -9 -10 -1 20 -7 24 -17 -6 -8 22 -19 -23 -2 -13
right_child=1 3 4 8 11 16 15 12 13 -11 -12 25 -14 -15 -16 18 -18 21 -20 -21 -22 23 -24 -25 -26 -27
leaf_value=0.034193251027995024 0.038083572737294707 0.026903598414456949 0.052845930541197537 0.045412173045419481 0.044476288243832186 0.051290337205487209 0.048400372083512486 0.024883653016022494 -0.0051288305668867268 0.003673461829426434 0.0010158609348459922 0.049120599320586274 -8.5041539141528271e-05 -0.0094044322088722657 0.029043758841338408 0.036367202751773686 0.028280447098929913 0.01615692784466952 0.053311698760959141 0.049173676684215163 0.041005900427254743 0.029681663657519321 0.026695173094788593 0.025336905050588148 0.03179613144283177 0.052710124578963249
leaf_weight=2916.673521026969 483.17408408969641 286.02782457321882 40376.33199763298 39.679337292909622 6773.0948074758053 208.87729331105947 182.65316508710384 179.39514882862568 3416.1084276214242 994.66318509727716 922.30339126288891 11747.940139308572 346.08779675513506 44440.865547187626 3123.7181416973472 3934.5986810550094 96.126553021371365 71.119936883449554 89.068518176674843 1063.0881932228804 2501.3148762434721 1513.4467592015862 155.73213489353657 271.55333711206913 204.91502214223146 698.48721627891064
leaf_count=10243 1474 1284 42590 76 14455 285 325 838 29840 7498 7363 17927 2786 413434 13021 12613 407 394 100 1696 6616 6248 688 1233 774 792
internal_value=0.0254386 -0.0061199 0.0481061 -0.00808466 0.0511333 0.0158008 0.0342641 0.0297075 -0.00886143 0.0089118 0.0029768 0.0477169 0.00851752 -0.00909963 0.0315455 0.0387096 0.0443723 0.0305289 0.0367798 0.0451313 0.0415602 0.0284878 0.0236444 0.0290634 0.0363524 0.0493341
internal_weight=127037 53104.6 73932.5 50404.7 60658.9 1585.69 13273.5 6565.87 48819 1280.69 961.983 20282.6 525.483 47857 6040.39 6707.64 305.004 2699.94 4023.67 7836.18 2683.97 2011.85 226.852 1785 688.089 12446.4
internal_count=595000 470998 124002 460187 77460 9474 46542 26888 450713 8782 7439 34870 3624 443274 23264 19654 692 10811 12713 16151 6941 8563 1082 7481 2248 18719
is_linear=0
shrinkage=0.00871456


Tree=6
num_leaves=26
num_cat=0
split_feature=11 37 66 39 8 37 68 212 17 93 10 25 12 67 6 74 82 37 12 37 33 93 17 74 82
split_gain=1.12445e+06 49630.1 29134.5 8226.11 6216.6 5298.27 3703.63 3582.76 2999.31 2854.76 1482.92 1283.38 1144.47 804.994 624.824 616.858 534.656 448.398 424.208 247.337 80.3863 47.8968 47.3462 22.2932 4.30474
threshold=6.5000000000000009 1.0000000180025095e-35 0.16869918699186995 17.500000000000004 12.500000000000002 1.5000000000000002 0.063164893617021281 1.0000000180025095e-35 1.0000000180025095e-35 0.56070758509782914 30.500000000000004 30.685000000000006 2.5000000000000004 0.14495798319327732 2.5000000000000004 0.0022393501508077714 0.11904761904761905 1.5000000000000002 1.5000000000000002 1.5000000000000002 1.5000000000000002 0.19890109890109894 630.73000000000013 0.21656107776235484 0.071428571428571438
decision_type=2 2 2 2 2 2 2 2 2 2 2 2 2 2 2 2 2 2 2 2 2 2 2 2 2
left_child=1 7 9 20 8 14 10 -1 17 11 -5 16 -8 21 -6 -7 -2 -3 -10 -13 23 -9 -22 -4 -15
right_child=2 4 3 6 5 15 12 13 18 -11 -12 19 -14 24 -16 -17 -18 -19 -20 -21 22 -23 -24 -25 -26
leaf_value=0.050573295313965254 0.04128164503827033 0.038481040650632223 0.03231538052689905 0.0032470128843020097 0.041142233722169845 0.016063244706151357 -0.0058926738367242638 0.046923911159562619 0.03096310078964553 0.048546106552451507 0.03517144995566001 0.013351989526441349 -0.0095845811830268003 0.043662764941584248 0.022287266252353988 -0.0025176378100640177 0.023300584158773379 0.03379583151095631 0.026048039263834651 -0.0032908462170259415 0.014376908975591898 0.050068466817868168 0.025093904157025795 0.023183403954994009 0.041304815152964844
leaf_weight=41775.198237448931 211.35505362600088 6413.894703283906 220.5367644354701 1067.2548322826624 396.29792628437281 165.69196636229753 7609.8108262121677 12910.36019936204 4490.1006025522947 514.54479353874922 120.65585597604513 198.00743064284325 40115.047472514212 4347.3986807763577 221.35265490412712 694.11070130765438 356.13261210918427 2385.1138381436467 2122.3081401064992 100.47885970026255 61.666554883122444 1118.6076996177435 140.75043272972107 68.003338657319546 1380.906995639205
leaf_count=42545 468 17261 794 8076 961 984 67683 19361 16783 743 406 1235 376881 8560 1054 5814 1673 7966 9267 836 339 1295 636 309 3070
internal_value=0.0247897 0.0454773 -0.00715694 -0.00826105 0.0322334 0.0151124 -0.00861794 0.0491107 0.0338714 0.0322894 0.00656747 0.022501 -0.00899636 0.0460114 0.0345216 0.00109864 0.030173 0.0372226 0.0293978 0.00775755 0.0271356 0.0471848 0.0220875 0.0304186 0.0431153
internal_weight=129206 78421.3 50784.2 49403.7 16888.9 1477.45 48912.8 61532.5 15411.4 1380.52 1187.91 865.974 47724.9 19757.3 617.651 859.803 567.488 8799.01 6612.41 298.486 490.957 14029 202.417 288.54 5728.31
internal_count=595000 134921 460079 455124 60090 8813 453046 74831 51277 4955 8482 4212 444564 32286 2015 6798 2141 25227 26050 2071 2078 20656 975 1103 11630
is_linear=0
shrinkage=0.00871456


Tree=7
num_leaves=27
num_cat=0
split_feature=11 50 66 84 84 194 81 68 49 4 10 92 4 67 50 67 11 81 38 81 50 33 212 10 93 74
split_gain=1.05957e+06 45578.2 28316 8031.42 6988.71 4418.6 3700.82 3670.28 2640.2 1897.88 1413.45 1305.94 1219.93 1096.85 591.691 432.997 403.093 351.28 262.018 224.271 130.252 74.2461 64.4975 46.7851 32.6651 19.7767
threshold=6.5000000000000009 12.500000000000002 0.16869918699186995 0.19444444444444448 0.2166666666666667 1.6534516563260182 0.10714285714285715 0.063164893617021281 2.1445993031358888 1.0000000180025095e-35 30.500000000000004 98.864853393480075 1.5000000000000002 0.14495798319327732 8.5000000000000018 0.16807909604519775 10.500000000000002 0.10714285714285715 2.5000000000000004 0.10714285714285715 16.500000000000004 1.5000000000000002 0.4535696130185119 3.5000000000000004 0.19890109890109894 0.21656107776235484
decision_type=2 2 2 2 2 2 2 2 2 2 2 2 2 2 2 2 2 2 2 2 2 2 2 2 2 2
left_child=1 4 8 21 9 22 15 10 -2 19 -5 16 -9 24 -8 -6 -10 -11 -13 -1 -15 25 -3 -23 -7 -4
right_child=2 5 3 7 6 13 14 12 11 17 -12 18 -14 20 -16 -17 -18 -19 -20 -21 -22 23 -24 -25 -26 -27
leaf_value=0.036257291149072203 0.046614412867843111 0.048497121621327764 0.031331912063530268 0.0032110486948226579 0.040067921719139019 0.044844138342508742 -0.0036868747220600816 -0.0054161097042553083 0.017727159757122295 0.031152030145685305 0.034043134608159692 0.040605140301840821 -0.0095290606602529363 0.039140077620142814 0.018103500453136974 0.022125243525896225 0.00049854746733470111 0.026899369264228784 0.026109821369583903 0.032647447297107397 0.041984216581379297 0.024895398440101878 0.043263339388260748 0.014741499682883722 0.047815212708559415 0.022631810329459191
leaf_weight=4748.1294378712773 533.33553824573755 44420.442241623998 225.54170653969049 1069.823220282793 202.23849552124739 12248.164279580116 701.2125129327178 6340.0958591774106 260.50402995198965 2630.9912629649043 123.64719951152802 184.48055231571198 41059.924495562911 3214.2249438762665 106.54160529375076 238.84601800143719 170.62033105641603 4159.4991208463907 261.87958601117134 2388.6591571196914 4265.3407391607761 132.86075157672167 432.60101696103811 72.696134082973003 1041.0943034291267 69.116460643708706
leaf_count=12977 740 43960 794 8076 474 18192 6001 56408 1412 9193 406 375 388156 7477 593 1102 1329 17013 1099 7818 8201 582 704 393 1216 309
internal_value=0.0241775 0.0437492 -0.00713413 -0.008241 0.0301276 0.0468979 0.0103452 -0.00859923 0.0313203 0.0318987 0.00648037 0.0219021 -0.00897936 0.043541 -0.000755584 0.0305604 0.0109649 0.0285597 0.0323239 0.0350628 0.0407775 0.0264065 0.0484494 0.0215682 0.0450871 0.0295352
internal_weight=131303 80798 50504.5 49093.7 15176.1 65621.9 1248.84 48593.5 1410.82 13927.3 1193.47 877.484 47400 20768.8 807.754 441.085 431.124 6790.49 446.36 7136.79 7479.57 500.215 44853 205.557 13289.3 294.658
internal_count=595000 134921 460079 455124 55171 79750 8170 453046 4955 47001 8482 4215 444564 35086 6594 1576 2741 26206 1474 20795 15678 2078 44664 975 19408 1103
is_linear=0
shrinkage=0.00871456


Tree=8
num_leaves=27
num_cat=0
split_feature=11 5 66 0 0 5 68 69 74 49 10 92 4 92 5 6 67 11 38 5 214 15 74 69 214 38
split_gain=1.00075e+06 41199.2 27544.6 8105.5 5315.09 5757.32 3618.41 2568.87 2470 2433.32 1353.21 1229.18 1205.45 633.638 545.135 484.628 390.947 388.049 241.762 199.255 136.282 69.4292 59.06 50.3659 31.1036 21.8331
threshold=6.5000000000000009 1.0000000180025095e-35 0.16869918699186995 19.500000000000004 21.500000000000004 1.5000000000000002 0.063164893617021281 0.067231638418079109 0.0012020662031420107 2.1445993031358888 30.500000000000004 98.864853393480075 1.5000000000000002 80.988421812222455 1.5000000000000002 2.5000000000000004 0.14495798319327732 10.500000000000002 2.5000000000000004 1.5000000000000002 1.0000256714126223 38.180000000000007 0.45898200710215514 0.52565789473684221 0.99999913935916485 1.5000000000000002
decision_type=2 2 2 2 2 2 2 2 2 2 2 2 2 2 2 2 2 2 2 2 2 2 2 2 2 2
left_child=1 7 9 21 8 15 10 20 19 -2 -5 17 -8 -7 -10 -6 -9 -11 -13 -3 24 22 -4 -23 -1 -18
right_child=2 4 3 6 5 13 12 16 14 11 -12 18 -14 -15 -16 -17 25 -19 -20 -21 -22 23 -24 -25 -26 -27
leaf_value=0.045334204197434072 0.044835413219218717 0.036630927767091884 0.030293934255509272 0.0031274707874471954 0.039460269333899962 -0.0031587963179338222 -0.0054184131607346257 0.043418254423452048 0.031398255143174902 0.017355661702919314 0.032985811531920463 0.03921029593616663 -0.0095166061859295083 0.01859538918300286 0.026941680956706935 0.022598327291575737 0.040863764019337945 0.00049409265288359572 0.025422713277366935 0.032792897788515976 0.044182944048934039 0.012132809825491982 0.018445969278811064 0.024084185126097557 0.046614588429547119 0.038463948093531868
leaf_weight=6120.0135419517756 549.70151939988136 5293.5229789018631 300.60426431894302 1071.7457443848252 439.85908614099026 743.18863696604967 6312.6971215158701 8649.0547013431787 3744.4611015841365 263.80616356432438 126.57444385439157 189.45475445687771 40764.369909621775 114.94683039933443 5395.8659605979919 205.85291952639818 4830.7351534664631 170.68319133669138 266.66736598312855 1697.8015273734927 3480.1216993182898 51.906034722924232 56.55506919324398 100.97719842940569 40918.833028182387 1469.1661566644907
leaf_count=7057 740 13089 1059 8077 958 6308 56415 12172 12057 1412 406 375 388175 614 20975 905 8773 1329 1099 5184 4584 287 271 434 39161 3084
internal_value=0.0235991 0.0421595 -0.00711148 -0.00822104 0.0303269 0.0146142 -0.00858677 0.0453455 0.0317887 0.0304117 0.00635367 0.0213928 -0.00896751 -0.000189549 0.0287768 0.0342108 0.0421214 0.0107862 0.031361 0.0357129 0.0462971 0.0262461 0.0285859 0.0203414 0.0464508 0.040322
internal_weight=133329 83103.4 50225.7 48785.4 17635.5 1503.85 48275.4 65467.9 16131.7 1440.31 1198.32 890.611 47077.1 858.135 9140.33 645.712 14949 434.489 456.122 6991.32 50519 510.043 357.159 152.883 47038.8 6299.9
internal_count=595000 134921 460079 455124 60090 8785 453073 74831 51305 4955 8483 4215 444590 6922 33032 1863 24029 2741 1474 18273 50802 2051 1330 721 46218 11857
is_linear=0
shrinkage=0.00871456


Tree=9
num_leaves=27
num_cat=0
split_feature=6 50 0 84 68 5 194 90 0 50 5 12 90 67 67 12 6 67 50 67 5 191 10 194 54 16
split_gain=947628 44353.2 17917.4 9626.78 7890.67 4535.82 3771.47 3477.14 1932.07 1608.33 1178.81 1160.64 1700.54 991.112 738.225 375.174 187.445 173.53 125.184 120.791 95.3023 50.4223 45.8864 40.7337 28.3567 13.3216
threshold=4.5000000000000009 12.500000000000002 19.500000000000004 0.2166666666666667 0.063164893617021281 1.5000000000000002 1.6534516563260182 1.6173341677096371 50.500000000000007 5.5000000000000009 2.5000000000000004 2.5000000000000004 1.7398630136986304 0.14495798319327732 0.14495798319327732 1.5000000000000002 1.5000000000000002 0.267479674796748 16.500000000000004 0.23606811145510839 3.5000000000000004 2.0253571428571431 9.5000000000000018 495.48794181099112 13.500000000000002 5337.5900000000011
decision_type=2 2 2 2 2 2 2 2 2 2 2 2 2 2 2 2 2 2 2 2 2 2 2 2 2 2
left_child=1 3 20 9 7 14 -3 10 -7 15 -4 12 -6 22 -5 -1 -11 -9 -15 -13 23 -22 -8 24 -2 -23
right_child=2 6 4 5 11 8 13 17 -10 16 -12 19 -14 18 -16 -17 -18 -19 -20 -21 21 25 -24 -25 -26 -27
leaf_value=0.028372275969638035 0.027451179527644164 0.044853145100333315 0.017598207322018652 0.039114335690673095 -0.0060965602236568196 -0.00028869581410287263 0.041641560198940025 0.043990666846296593 0.047796823190445863 0.035029197291623751 -0.0011690289256986463 0.0073841072522079386 0.045418122689403213 0.036430778034747049 0.021013387311013317 0.023659161679155681 0.031810090151848373 0.027755395473263077 0.03907502940292968 -0.0095635504547417847 0.015344735382332626 0.02577530848029418 0.044456156287237238 0.021233316991455971 0.033946469426165436 0.017544357883777749
leaf_weight=4694.2788297608495 226.24506206065416 47628.608830615878 373.48002140969038 288.80940379202366 7210.3917392268777 1426.1974451392889 13144.879486709833 187.63031694293022 63.624990098178387 2630.207573056221 781.34268116205931 29.80135589838028 46.233596414327621 3488.6778242811561 457.4068064019084 1958.4495679587126 4721.8856456205249 100.08804908394814 4545.3291093409061 39206.275136828423 63.616551570594311 458.02531531453133 1194.8776682019234 66.388007186353207 249.43969959765673 45.475847028195858
leaf_count=16485 822 44704 1974 576 65232 11629 18424 235 95 6533 6255 227 119 7819 2057 8153 13873 358 8307 376455 316 1801 1320 284 732 215
internal_value=0.0230517 0.040444 -0.00753262 0.0274598 -0.00833448 0.0106488 0.0434551 0.0117207 0.00184735 0.030141 0.00492467 -0.00895749 -0.00575053 0.0404736 0.0281435 0.0269959 0.0329751 0.0386763 0.0379403 -0.00955005 0.0270515 0.0241286 0.0418849 0.0299634 0.031043 0.0251402
internal_weight=135288 86243.2 49044.4 16240.9 47935.2 2236.04 70002.4 1442.54 1489.82 14004.8 1154.82 46492.7 7256.63 22373.8 746.216 6652.73 7352.09 287.718 8034.01 39236.1 1109.19 567.118 14339.8 542.073 475.685 503.501
internal_count=595000 139975 455025 59401 450855 14357 80574 8822 11724 45044 8229 442033 65351 35870 2633 24638 20406 593 16126 376682 4170 2332 19744 1838 1554 2016
is_linear=0
shrinkage=0.00871456


Tree=10
num_leaves=28
num_cat=0
split_feature=6 50 0 84 68 5 194 90 0 4 4 5 67 0 67 12 67 5 69 50 5 200 22 31 212 0 68
split_gain=899095 40929 17485.6 9038.01 7789.43 4339.24 3470.53 3301.03 1840.48 1496.45 1214.4 1141.24 931.663 899.611 686.699 349.884 248.476 176.928 166.863 116.01 89.1802 78.5772 89.3196 57.5215 44.0727 40.3971 6.81977
threshold=4.5000000000000009 12.500000000000002 19.500000000000004 0.2166666666666667 0.063164893617021281 1.5000000000000002 1.5428768735614331 1.6173341677096371 50.500000000000007 1.0000000180025095e-35 1.5000000000000002 2.5000000000000004 0.14495798319327732 96.500000000000014 0.14495798319327732 1.5000000000000002 0.23606811145510839 1.5000000000000002 0.21886405109489054 16.500000000000004 2.5000000000000004 5043.1148011855157 5462.4300000000012 8.5000000000000018 0.55535288227583046 15.500000000000002 0.16594202898550728
decision_type=2 2 2 2 2 2 2 2 2 2 2 2 2 2 2 2 2 2 2 2 2 2 2 2 2 2 2
left_child=1 3 20 9 7 14 24 11 -7 17 13 -4 25 -6 -5 -11 -12 -1 -9 -14 26 23 -23 -22 -3 -8 -2
right_child=2 6 4 5 10 8 12 18 -10 15 16 -13 19 -15 -16 -17 -18 -19 -20 -21 21 22 -24 -25 -26 -27 -28
leaf_value=0.033065826685924851 0.035241115441674443 0.04331105710322989 0.017232072397233417 0.037820354516996155 -0.0056791087204106899 -0.00028624670213301751 0.040226191506918627 0.042666018195390239 0.045967008389726775 0.027594063410141877 0.010327779255019485 -0.0011598825064108227 0.035281974072465916 0.024725313016322994 0.020535178587852285 0.023077847979438511 -0.0095149849098909289 0.029956303810857815 0.027064532748720831 0.037793979859597933 0.028449440098474686 0.0073713689150285379 0.025172788333848936 0.022832250381516272 0.038528267610371772 0.042656124512965819 0.027497349744407394
leaf_weight=4883.5665405094624 115.79966780543327 48348.835002034903 378.12998054921627 296.14978563785553 6010.7065206095576 1425.8895033746958 13368.475380703807 189.76582053303719 65.682512134313583 4784.281043432653 45.647553153336048 780.66622738540173 3596.785521581769 72.084559768438339 464.01493615657091 1990.2127836197615 40046.60753646493 2628.3043607994914 105.0691380277276 4686.5711243152618 408.67706220597029 49.250598572194576 41.790675900876522 398.92869516462088 389.39371003210545 1493.4866497963667 114.95885527133942
leaf_count=12379 283 43852 1974 576 54345 11629 18261 223 95 16485 320 6255 7872 382 2057 8153 386986 8027 370 8354 1428 273 155 1633 590 1645 398
internal_value=0.0225328 0.0390995 -0.00751104 0.0267293 -0.00831527 0.0104827 0.0419442 0.0115305 0.00182957 0.0292872 -0.00894077 0.00486506 0.0391367 -0.00530701 0.0273877 0.0262779 -0.00949158 0.0319899 0.0374243 0.0367159 0.026338 0.0248441 0.0160892 0.0257675 0.0432751 0.0404786 0.0317737
internal_weight=137180 88421.6 48758.1 16538.1 47628.7 2251.74 71883.5 1453.63 1491.57 14286.4 46175 1158.8 23145.3 6082.79 760.165 6774.49 40092.3 7511.87 294.835 8283.36 1129.41 898.647 91.0413 807.606 48738.2 14862 230.759
internal_count=595000 139975 455025 59401 450855 14357 80574 8822 11724 45044 442033 8229 36132 54727 2633 24638 387306 20406 593 16226 4170 3489 428 3061 44442 19906 681
is_linear=0
shrinkage=0.00871456


Tree=11
num_leaves=26
num_cat=0
split_feature=11 50 66 93 93 68 5 194 93 4 4 10 92 67 50 5 5 50 38 5 50 200 69 212 69
split_gain=853657 32718.3 25522 7184.91 5330.77 3601.41 3335.25 3153.78 2010.67 1441.56 1234.25 1172.35 1044.81 770.586 458.691 349.612 347.068 289.016 204.638 175.964 88.8859 52.5762 48.2447 47.2613 25.6223
threshold=6.5000000000000009 12.500000000000002 0.16869918699186995 0.22792207792207794 0.25568475452196388 0.063164893617021281 1.5000000000000002 1.6534516563260182 0.56070758509782914 1.0000000180025095e-35 1.5000000000000002 30.500000000000004 98.864853393480075 0.14495798319327732 8.5000000000000018 1.5000000000000002 1.5000000000000002 4.5000000000000009 2.5000000000000004 1.5000000000000002 16.500000000000004 3661.6850270565851 0.52565789473684221 0.4535696130185119 0.10582306830907055
decision_type=2 2 2 2 2 2 2 2 2 2 2 2 2 2 2 2 2 2 2 2 2 2 2 2 2
left_child=1 4 8 21 9 11 17 23 12 19 -7 -5 16 24 -8 -11 -2 -6 -14 -1 -15 22 -4 -3 -9
right_child=2 7 3 5 6 10 14 13 -10 15 -12 -13 18 20 -16 -17 -18 -19 -20 -21 -22 -23 -24 -25 -26
leaf_value=0.032081675657005343 0.014918240199326178 0.04184230339892353 0.020224988867149525 0.0032065324321338975 0.014324845867685189 -0.0052995085770578959 -0.0034332508611430237 0.039679196519660204 0.040664904260166293 0.028111649415168284 -0.0094729121403328113 0.030236050280972857 0.03547089850943598 0.034337092934159326 0.015210458249302746 0.024028234116996429 -0.0021996713755132549 0.032094476004736472 0.023324250132046941 0.029072150316114063 0.036622567550744625 0.016113526558546209 0.027587225322738218 0.037560309779761734 0.038343276338016194
leaf_weight=4987.3555719554424 312.8142489567399 49692.643439784646 158.64185959845781 1082.3048095703125 95.284112498164177 6240.3160785064101 702.61934772878885 8275.1610949039459 589.51599325984716 2732.4624520465732 39895.699949972332 134.77699384838343 209.22125868499279 3537.0695972517133 114.01707883179188 4584.3304751291871 124.36216951906681 363.38168579339981 285.93746973574162 2807.5926228687167 4719.9704641997814 81.80255052447319 284.9543996155262 480.79929442703724 6513.8634287565947
leaf_count=12381 1689 43960 681 8081 466 56422 6043 10253 743 8707 388181 406 384 7477 640 17525 1016 972 1123 8437 8201 377 976 704 9155
internal_value=0.0220401 0.0380746 -0.0070449 -0.00816227 0.0269337 -0.00851843 0.00979219 0.0405668 0.0280567 0.028378 -0.00890886 0.00626508 0.019983 0.0378696 -0.000782596 0.0255638 0.0100565 0.0285202 0.028634 0.031009 0.0356559 0.0238053 0.0251056 0.0418034 0.0390984
internal_weight=139007 89606.6 49400.3 47878.5 16387 47353.1 1275.3 73219.5 1521.85 15111.7 46136 1217.08 932.335 23046.1 816.636 7316.79 437.176 458.666 495.159 7794.95 8257.04 525.399 443.596 50173.4 14789
internal_count=595000 134921 460079 455124 55171 453090 8121 79750 4955 47050 444603 8487 4212 35086 6683 26232 2705 1438 1507 20818 15678 2034 1657 44664 19408
is_linear=0
shrinkage=0.00871456


Tree=12
num_leaves=26
num_cat=0
split_feature=6 86 0 66 93 68 49 212 4 37 92 69 92 4 6 66 69 6 37 66 0 72 72 38 0
split_gain=813861 34489.5 16694.8 8293.48 6649.8 5506.45 3281.3 2160.88 1873.16 1411.13 1393.17 903.056 539.867 409.881 406.734 390.355 287.824 284.259 249.571 104.276 52.9034 42.0026 38.8379 31.4261 29.5148
threshold=4.5000000000000009 0.095454545454545472 19.500000000000004 0.22361111111111112 0.25568475452196388 0.077677224736048281 2.0113636363636371 1.0000000180025095e-35 1.0000000180025095e-35 1.5000000000000002 54.152254677328457 0.14229471316085493 95.026843029069539 1.5000000000000002 1.0000000180025095e-35 0.32529069767441871 0.23381860075408464 1.5000000000000002 1.5000000000000002 0.37452290076335887 16.500000000000004 0.11857587579113806 0.24361041786437615 4.5000000000000009 15.500000000000002
decision_type=2 2 2 2 2 2 2 2 2 2 2 2 2 2 2 2 2 2 2 2 2 2 2 2 2
left_child=1 7 19 6 8 11 16 -1 17 -7 13 -6 -8 -5 24 -12 -4 -3 -10 -2 -16 23 -23 -21 -9
right_child=2 4 3 10 5 9 12 14 18 -11 15 -13 -14 -15 20 -17 -18 -19 -20 21 -22 22 -24 -25 -26
leaf_value=0.040493553028300683 0.031476264513757825 0.032782956687569371 0.040149475386467889 -0.0066988589772734239 0.038682021337917406 0.01758351168198323 0.00048627997963330221 0.037910909975644821 0.026974554080842591 -0.0022760041113035405 0.0048902411928972486 0.022101055978659839 0.016255100677448286 -0.0094883548372587858 0.035054554295306309 -0.0039804021581944203 0.021818209756860923 0.029578251654942708 0.023469975423930967 0.031449808558580719 0.037983043649297596 0.014506232169192232 0.022915370542825771 0.023437266733417735 0.040612230894268311
leaf_weight=49476.646901443601 191.87640886008739 3945.689801260829 273.22382535785437 4500.0024892389774 393.13558831065893 353.98131588101387 641.92480392754078 14930.331192389131 2891.698204793036 1136.9834023565054 502.71990648657084 739.01121690124273 219.44585938751698 39312.544250138104 6570.6172416955233 1475.1629617065191 102.38975974172354 6012.0395122617483 4116.6478652581573 120.68666370213032 1052.5009379684925 67.85775812715292 618.10648197680712 169.39617764204741 956.37231610715389
leaf_count=42550 518 8767 390 41562 623 1650 5176 18995 9192 9692 3795 3067 1101 385469 11511 12900 462 16165 15459 330 1413 312 2390 620 891
internal_value=0.0215718 0.0366903 -0.00746876 -0.00827762 0.0264148 0.0134781 0.0139654 0.039447 0.0284122 0.00246025 -0.0088794 0.0279429 0.0045476 -0.00920238 0.0372397 -0.00172002 0.0353601 0.0308573 0.0249267 0.0250396 0.0354731 0.0236843 0.0221512 0.0270513 0.0380809
internal_weight=140771 92575.7 48195.3 47027.4 19589.2 2623.11 1236.98 72986.5 16966.1 1490.96 45790.4 1132.15 861.371 43812.5 23509.8 1977.88 375.614 9957.73 7008.35 1167.92 7623.12 976.047 685.964 290.083 15886.7
internal_count=595000 139975 455025 450855 64615 15032 7129 75360 49583 11342 443726 3690 6277 427031 32810 16695 852 24932 24651 4170 12924 3652 2702 950 19886
is_linear=0
shrinkage=0.00871456


Tree=13
num_leaves=28
num_cat=0
split_feature=6 86 93 66 93 68 49 194 85 12 37 69 90 12 92 69 6 12 6 66 200 31 72 69 93 212 224
split_gain=776109 32212.9 16111.5 8166.86 6256.57 5261.51 3122.89 2122.1 1748.12 1483.03 1370.36 843.662 595.211 499.839 485.476 356.2 317.994 276.152 141.224 101.673 51.2428 60.3733 59.3625 42.5331 20.978 9.31451 6.18
threshold=4.5000000000000009 0.095454545454545472 0.22792207792207794 0.22361111111111112 0.25568475452196388 0.077677224736048281 2.1445993031358888 1.6534516563260182 0.12250000000000001 1.5000000000000002 1.5000000000000002 0.14229471316085493 1.5473944294699014 1.5000000000000002 95.026843029069539 0.24333214793741112 1.0000000180025095e-35 2.5000000000000004 1.5000000000000002 0.36323411102172171 3145.7301410250097 8.5000000000000018 0.11272719541558986 0.16590214067278289 0.19890109890109894 0.55535288227583046 1.5000000000000002
decision_type=2 2 2 2 2 2 2 2 2 2 2 2 2 2 2 2 2 2 2 2 2 2 2 2 2 2 2
left_child=1 7 19 6 8 11 15 25 18 12 -7 -6 -5 -10 -8 -4 24 -11 -3 26 21 -21 -22 -18 -9 -1 -2
right_child=2 4 3 9 5 10 14 16 13 17 -12 -13 -14 -15 -16 -17 23 -19 -20 20 22 -23 -24 -25 -26 -27 -28
leaf_value=0.039226217210604486 0.025442993907056136 0.032317187207620036 0.038261694023502206 -0.0035369087976669317 0.037458858122256362 0.017227400701133173 0.00022803523974410336 0.036581257287291578 0.026285788383404212 -0.0071934588033333146 -0.0022600999819637896 0.021589532374188904 0.021930623820997974 0.021481422916165727 0.015388981474433698 0.018523366016093164 0.035898339882002278 -0.0095129597944884643 0.02962316551734143 0.026764832009904756 0.02418327399653037 0.021177208908454207 0.012849686035730277 0.03374995122530413 0.039367062578455549 0.035632095868108019 0.033666135517124135
leaf_weight=52016.208728015423 81.081154651939869 3298.3537220805883 304.28782439231873 2939.0381258204579 402.48368459939957 358.18872545659542 629.09801381081343 14051.41097702086 7382.3312344476581 4412.3642043992877 1135.0343249514699 749.9450880587101 68.60529026389122 2255.6959472224116 212.81197542697191 101.88778980821371 2018.6479659974575 38067.652517475188 4336.7743685767055 404.79736457765102 70.473767943680286 406.95992931723595 101.16060633957386 5382.4781072288752 763.17577828466892 410.17799533903599 112.91997692734003
leaf_count=43872 252 6972 467 25500 623 1650 5098 17838 22963 41708 9692 3067 302 8744 1074 491 2973 376234 10904 1325 239 1590 485 9433 696 548 260
internal_value=0.0211259 0.0356036 -0.00744752 -0.00825016 0.0257496 0.0132466 0.0137197 0.0382321 0.0276619 -0.00885386 0.00243513 0.0272121 -0.00293494 0.0251683 0.00410309 0.0334797 0.0359432 -0.00927262 0.0307988 0.0243539 0.0230234 0.0240503 0.0178375 0.0343497 0.0367324 0.0392001 0.0306576
internal_weight=142474 94560.9 47913.1 46735.7 19918.8 2645.65 1248.09 74642.1 17273.2 45487.7 1493.22 1152.43 3007.64 9638.03 841.91 406.176 22215.7 42480 7635.13 1177.39 983.392 811.757 171.634 7401.13 14814.6 52426.4 194.001
internal_count=595000 139975 455025 450874 64615 15032 7130 75360 49583 443744 11342 3690 25802 31707 6172 958 30940 417942 17876 4151 3639 2915 724 12406 18534 44420 512
is_linear=0
shrinkage=0.00871456


Tree=14
num_leaves=26
num_cat=0
split_feature=11 18 66 84 8 37 12 9 212 17 9 25 74 67 66 69 38 12 37 84 37 65 69 74 38
split_gain=739441 26327.8 23801.5 6948.69 3671 3662.56 3306.55 1903.78 1882.42 1721.66 1548.37 921.402 512.946 423.616 385.64 363.739 302.088 267.406 253.755 203.404 194.107 102.552 45.9478 42.0688 6.99279
threshold=6.5000000000000009 1.0000000180025095e-35 0.16869918699186995 0.2166666666666667 12.500000000000002 1.5000000000000002 1.5000000000000002 22.500000000000004 1.0000000180025095e-35 1.0000000180025095e-35 22.500000000000004 30.685000000000006 0.0022393501508077714 0.14495798319327732 0.28436657681940708 0.091372912801484255 2.5000000000000004 1.5000000000000002 1.5000000000000002 0.17222222222222225 1.5000000000000002 0.56879648411088579 0.10582306830907055 0.45898200710215514 1.5000000000000002
decision_type=2 2 2 2 2 2 2 2 2 2 2 2 2 2 2 2 2 2 2 2 2 2 2 2 2
left_child=1 8 10 19 9 15 7 -5 -1 18 11 16 -7 22 -8 -6 -2 -11 -3 23 -13 -21 -10 -4 -15
right_child=2 4 3 6 5 12 14 -9 13 17 -12 20 -14 24 -16 -17 -18 -19 -20 21 -22 -23 -24 -25 -26
leaf_value=0.038058413794694539 0.032577845656274959 0.030084371126931068 0.024479977967425102 -0.0022603414898288892 0.038823922144103282 0.01399528022981753 -0.0036385143860720461 0.023731519074974984 0.036392602878535053 0.024877128417169842 0.037382848331598044 0.011989097253247425 -0.002459160399823248 0.033551844610369655 -0.0093180789700354014 0.023794061824215923 0.020269552015489228 0.021226408840003128 0.0268189244804952 0.016619569809252735 -0.0021825440093827882 0.0014592201899538454 0.035070158151098159 0.016818291729608907 0.031810275075995993
leaf_weight=51712.823619768023 266.46225221455097 7647.9989368766546 394.85074751079082 3571.0197013393044 171.22057660669088 178.86865734308958 935.38053583353758 224.85422086715698 9929.1202844530344 5210.3547747954726 585.5433883741498 216.7719018086791 688.75278059393167 5273.1096681505442 41615.799389317632 553.07010881602764 419.02778412401676 2422.7761947512627 2800.6875057891011 87.465041518211365 108.47174901515245 56.168751187622547 7276.53700260818 101.34791800379753 1668.3316556960344
leaf_count=42545 479 17261 1335 30349 195 984 8468 969 11204 16783 668 1234 5814 8560 412683 1820 1692 9267 7966 469 882 413 9452 438 3070
internal_value=0.020701 0.0347775 -0.0069793 -0.00810416 0.0257856 0.0130601 -0.00849838 -0.000703382 0.0371083 0.0269036 0.0260852 0.0194517 0.000962328 0.0350694 -0.00919357 0.0274874 0.0251721 0.0237271 0.0292168 0.0203593 0.00727204 0.0108587 0.0358393 0.0230255 0.0331467
internal_weight=144117 95533.7 48583.2 46986.9 19673.7 1591.91 46347.1 3795.87 75859.9 18081.8 1596.28 1010.73 867.621 24147.1 42551.2 724.291 685.49 7633.13 10448.7 639.832 325.244 143.634 17205.7 496.199 6941.44
internal_count=595000 134921 460079 455124 60090 8813 452469 31318 74831 51277 4955 4287 6798 32286 421151 2015 2171 26050 25227 2655 2116 882 20656 1773 11630
is_linear=0
shrinkage=0.00871456


Tree=15
num_leaves=28
num_cat=0
split_feature=11 73 68 39 8 81 86 12 74 69 93 10 93 68 92 81 12 38 69 76 19 38 33 10 69 112 215
split_gain=706896 24772.5 22231.6 6330.98 3461.59 3509.52 3205.83 2129.38 1633.85 1580.09 1262.27 990.035 826.511 607.013 541.848 463.994 429.323 364.338 343.47 236.626 194.609 123.509 61.5381 38.6593 31.048 22.9103 5.73695
threshold=6.5000000000000009 1.0000000180025095e-35 0.05594679186228483 17.500000000000004 12.500000000000002 0.10714285714285715 0.21825396825396828 1.5000000000000002 0.0012020662031420107 0.067231638418079109 0.60452338359315105 27.500000000000004 0.56070758509782914 0.091750841750841763 80.988421812222455 0.17857142857142858 1.5000000000000002 4.5000000000000009 0.11159003831417626 0.56195175438596501 1.0000000180025095e-35 1.5000000000000002 1.5000000000000002 3.5000000000000004 0.20622803828910702 802.68500000000006 1.0000273143411342
decision_type=2 2 2 2 2 2 2 2 2 2 2 2 2 2 2 2 2 2 2 2 2 2 2 2 2 2 2
left_child=1 9 6 22 8 18 12 10 21 26 -5 15 17 -9 -7 -8 -10 -2 -6 -13 -11 -3 25 -24 -22 -4 -1
right_child=2 4 3 7 5 14 11 13 16 20 -12 19 -14 -15 -16 -17 -18 -19 -20 -21 24 -23 23 -25 -26 -27 -28
leaf_value=0.036834577996865396 0.025109639512105882 0.030541590633449904 0.027915587895800162 -0.0027188401300377169 0.035797497770496879 -0.0017591364239146147 0.012251897346601955 0.0054609697354778943 0.024974848800500195 0.034633921586907708 0.027359706767190177 0.038250584171065562 0.036906543141294809 -0.0092309878389547576 0.018305879439115061 -3.6344206978236392e-05 0.020798628341446166 0.0079515805799724899 0.022505909782111078 0.016132574296455437 0.033481774594121494 0.028090359267603622 0.020522379769494399 0.011995657969517553 0.031803961485283361 0.020984284823606827 0.036006135375398922
leaf_weight=52395.234557166696 586.73851296305656 3570.7033593803644 142.51678348332644 2972.2119945660233 230.96980073302984 752.70443162322044 391.31084135919809 212.61989867687225 7652.2553745433688 9592.6866873949766 107.08421245217323 84.347257547080517 538.99148160964251 42128.603093311191 115.40403105318546 570.52950568497181 2652.5379924327135 116.59599883854389 505.50988288968801 76.918386086821556 3664.042328119278 4507.8520489260554 150.60324132442474 81.0314020216465 4294.7393191605806 151.89000813663006 7454.489641353488
leaf_count=43453 1785 7317 403 25647 320 6251 2332 1653 23066 11440 380 104 563 420209 547 4456 9927 671 1695 341 5353 10967 582 393 7236 560 7349
internal_value=0.0202954 0.0338147 -0.00695757 -0.00829927 0.0251575 0.0128444 0.0190813 -0.00864791 0.02623 0.0360493 -0.00164781 0.00837554 0.0287162 -0.00915676 0.00095355 0.00497968 0.0239061 0.0223134 0.0267987 0.0281775 0.0337119 0.0291844 0.0216838 0.0177342 0.0325883 0.0245828 0.0367331
internal_weight=145701 97389.1 48312 45946.6 19987.9 1604.59 2365.43 45420.5 18383.3 77401.2 3079.3 1123.11 1242.33 42341.2 868.108 961.84 10304.8 703.335 736.48 161.266 17551.5 8078.56 526.041 231.635 7958.78 294.407 59849.7
internal_count=595000 134921 460079 449827 60090 8813 10252 447889 51277 74831 26027 7233 3019 421862 6798 6788 32993 2456 2015 445 24029 18284 1938 975 12589 963 50802
is_linear=0
shrinkage=0.00871456


Tree=16
num_leaves=28
num_cat=0
split_feature=11 50 68 0 39 86 37 12 76 0 50 90 93 68 50 37 50 82 12 50 82 214 25 15 76 0 214
split_gain=676661 23787.4 21817.3 6386.04 4086.8 3051.46 2585.99 2115.82 2015.75 1271.16 1058.69 921.151 777.987 602.889 490.39 485.313 415.944 346.08 310.737 240.271 89.0721 79.5302 58.2926 53.0937 50.5399 47.7618 15.3431
threshold=6.5000000000000009 12.500000000000002 0.05594679186228483 19.500000000000004 19.500000000000004 0.21825396825396828 1.5000000000000002 1.5000000000000002 0.12613636363636366 53.500000000000007 6.5000000000000009 1.6173341677096371 0.56070758509782914 0.091750841750841763 8.5000000000000018 2.5000000000000004 18.500000000000004 0.2142857142857143 1.5000000000000002 4.5000000000000009 0.071428571428571438 1.0000256714126223 6654.4250000000011 38.180000000000007 0.40192307692307699 16.500000000000004 0.99999913935916485
decision_type=2 2 2 2 2 2 2 2 2 2 2 2 2 2 2 2 2 2 2 2 2 2 2 2 2 2 2
left_child=1 4 5 22 10 12 19 9 21 -5 18 15 17 -9 -8 -7 24 -2 -1 -6 -12 26 23 -4 -10 -18 -3
right_child=2 8 3 7 6 11 14 13 16 -11 20 -13 -14 -15 -16 -17 25 -19 -20 -21 -22 -23 -24 -25 -26 -27 -28
leaf_value=0.024027560695888985 0.024510345214146086 0.035045124860509314 0.025076244650971798 -0.0027676513955909232 0.012041423349779 0.012624652405931278 -0.0035648909740892336 0.0053921140708461752 0.032257388773441163 0.026492373709985702 0.028922974840918346 0.029221134522661257 0.035856394822492615 -0.0092208862148152864 0.015567094708994011 0.00023058177904129349 0.033234518867852038 0.0078420420350831278 0.020389267852900655 0.02724180578216296 0.026602087400102531 0.034228173766736168 0.01359638636074479 0.017518867584424374 0.030101672289714804 0.035862526003635833 0.035930682526028775
leaf_weight=6655.4105710983276 595.87367530912161 7349.9785462021828 315.15121818333864 2960.6048014834523 107.20090712606907 402.75176418572664 690.26489958912134 213.4900985956192 2009.2001487910748 114.43048623949289 2742.2528025060892 137.00080259889364 549.97473608702421 41827.064462520182 116.45586927235126 589.46819512546062 12348.572177618742 117.23036906868219 2670.8940301984549 409.07709489017725 4374.42641299963 4193.5398533940315 77.768685288727283 141.16546143591404 5103.2990199923515 1102.4312138706446 49313.611973688006
leaf_count=20242 1785 7057 986 25626 506 2343 6001 1653 3100 409 5853 321 563 420228 593 4569 15597 671 9866 1070 11040 4621 351 574 9334 989 39052
internal_value=0.019908 0.03291 -0.00693591 -0.00828067 0.0237654 0.0187029 0.00900117 -0.00863583 0.0349044 -0.00165456 0.0249513 0.00825866 0.0279985 -0.00914623 -0.000754131 0.0052867 0.0325164 0.0218169 0.0229924 0.0241747 0.0275079 0.0357097 0.0216022 0.0228673 0.0307236 0.0334576 0.0358176
internal_weight=147229 99186.6 48042 45649.7 17766 2392.3 1323 45115.6 81420.6 3075.04 16443 1129.22 1263.08 42040.6 806.721 992.22 20563.5 713.104 9326.3 516.278 7116.68 60857.1 534.085 456.317 7112.5 13451 56663.6
internal_count=595000 134921 460079 449827 55171 10252 8170 447916 79750 26035 47001 7233 3019 421881 6594 6912 29020 2456 30108 1576 16893 50730 1911 1560 12434 16586 46109
is_linear=0
shrinkage=0.00871456


Tree=17
num_leaves=25
num_cat=0
split_feature=35 5 66 0 93 66 5 0 194 0 5 39 80 25 25 91 91 67 194 200 16 91 212 0
split_gain=646782 22659.6 20465.4 8471.09 3237.58 2794.52 2527.56 4375.29 1727.83 1605.31 1414.53 1476.02 1264.54 546.855 524.477 434.465 301.993 281.854 94.511 60.222 60.1122 48.8979 42.2364 36.2902
threshold=5.5000000000000009 2.5000000000000004 0.11437908496732027 19.500000000000004 0.56070758509782914 0.22361111111111112 1.5000000000000002 19.500000000000004 2.0259207193113 96.500000000000014 1.5000000000000002 19.500000000000004 0.2142857142857143 16.415000000000003 1.0000000180025095e-35 6.5539334040258117 28.999756524790829 0.14495798319327732 0.80899848427212984 4535.1214279625319 1.0000000180025095e-35 4.6001450180613412 0.55535288227583046 15.500000000000002
decision_type=2 2 2 2 2 2 2 2 2 2 2 2 2 2 2 2 2 2 2 2 2 2 2 2
left_child=2 4 8 19 10 9 14 15 22 -5 16 -12 -7 -9 18 -8 -2 23 -4 21 -16 -3 -1 -10
right_child=1 3 6 5 -6 12 7 13 17 -11 11 -13 -14 -15 20 -17 -18 -19 -20 -21 -22 -23 -24 -25
leaf_value=0.034975368428214602 0.016927192389941885 0.017795596403593971 0.034747876025492529 -0.0015515571235844828 0.035709236859839559 -0.0039595076457600428 0.020399295235532213 0.013581578617423984 0.03255156735073185 0.034191871546352705 0.023798882102448137 0.0022155703458097455 -0.0092608461266126055 -0.0036848161508003757 0.025497328487969047 0.0246229360686007 0.027593382702646076 0.030470475666663981 0.028280717196464449 0.012880838797161873 0.023054275525666815 0.023489681908497685 0.031704697681286496 0.034798518295722156
leaf_weight=56946.736432924867 591.38831371068954 249.32567508518696 236.82064487040043 207.65459334105253 564.07158827036619 3740.0863051041961 3776.7693222612143 181.4381857290864 14709.175351440907 173.10045836120844 305.33516950905323 1104.3314997851849 40640.451658353209 568.37418919801712 2923.0464516580105 3979.3284084200859 330.75990410149097 6782.9165082350373 6525.893010661006 87.601890623569489 1708.7040546387434 429.50945562124252 647.79465195536613 1289.3771191239357
leaf_count=44551 2541 985 294 1741 579 33111 13325 958 17451 311 951 8597 411698 4946 7688 11123 773 10867 13578 385 5162 1375 833 1177
internal_value=0.0195375 -0.00661627 0.0321671 -0.00812006 0.0170094 -0.00861243 0.0242468 0.0206322 0.0341271 0.0148178 0.012447 0.00693101 -0.00881445 0.000522666 0.026939 0.0225748 0.0208287 0.0320675 0.028522 0.0205571 0.0246113 0.0214853 0.0349402 0.0327389
internal_weight=148700 48423.6 100276 45527.7 2895.89 44761.3 19900.4 8505.91 80376 380.755 2331.81 1409.67 44380.5 749.812 11394.5 7756.1 922.148 22781.5 6762.71 766.437 4631.75 678.835 57594.5 15998.6
internal_count=595000 463047 131953 449606 13441 446861 57074 30352 74879 2052 12862 9548 444809 5904 26722 24448 3314 29495 13872 2745 12850 2360 45384 18628
is_linear=0
shrinkage=0.00871456


Tree=18
num_leaves=27
num_cat=0
split_feature=83 5 50 93 93 66 39 5 194 93 50 39 12 4 67 50 82 5 69 50 15 50 185 19 93 212
split_gain=620474 22259.8 19697.4 8175.79 3077.65 2752.72 2641.78 2604.64 2120.87 1535.23 1439.52 1412.4 1344.25 935.154 504.946 432.037 337.151 233.419 205.628 113.037 91.3061 58.4248 41.8853 37.5554 35.652 27.5755
threshold=0.18333333333333338 2.5000000000000004 12.500000000000002 0.22792207792207794 0.56070758509782914 0.22361111111111112 17.500000000000004 1.5000000000000002 1.6534516563260182 1.0331501831501835 8.5000000000000018 19.500000000000004 1.5000000000000002 1.0000000180025095e-35 0.14495798319327732 6.5000000000000009 0.11904761904761905 1.5000000000000002 0.11159003831417626 9.5000000000000018 102.83000000000001 16.500000000000004 8.1396127455590364 3549.7500000000005 0.19890109890109894 0.4535696130185119
decision_type=2 2 2 2 2 2 2 2 2 2 2 2 2 2 2 2 2 2 2 2 2 2 2 2 2 2
left_child=2 4 6 20 10 9 13 18 25 -5 11 -2 -7 19 24 -9 -12 -15 -8 -1 22 -16 -3 -22 -10 -4
right_child=1 3 8 5 -6 12 7 15 14 -11 16 -13 -14 17 21 -17 -18 -19 -20 -21 23 -23 -24 -25 -26 -27
leaf_value=0.02487805572861412 0.023074042684698488 0.023708548069976861 0.034080853381838111 -0.0015399858278879706 0.03473638222247117 -0.003143644312976695 0.033404369936688924 -0.0041165899860490648 0.031787036465303897 0.033239356736510822 0.028843712089408925 0.0018443759255412989 -0.0092021695535834461 0.023627851126721472 0.028341188727319791 0.010921351586144826 0.017079129178686332 0.020395412812468369 0.021219311037284937 0.027112007818347914 0.0072181956741189865 0.030094761933530258 0.017418996002288328 0.016728637377574133 0.033910706744288498 0.030885926742815564
leaf_weight=4704.0859735757113 302.70636710524559 393.37479741871357 57355.447639212012 207.41362136602402 574.84565325081348 2989.2632308900356 168.8296373039484 528.73392097651958 15665.53982321918 176.57322400063276 266.36039432883263 1082.2012946382165 41094.70326924324 3019.245243743062 3999.7547848299146 196.78515291213989 698.70903470367193 4688.7339904531837 378.02018368244171 3905.3812902569771 49.019424147903919 5394.5752731561661 166.29403880983591 160.4450500831008 1399.2158059030771 550.1293648481369
leaf_count=11754 938 1232 43957 1741 579 25920 240 4645 18191 311 512 8431 418899 8601 7441 1152 2981 16103 1219 8477 241 8200 612 650 1270 703
internal_value=0.0191829 -0.0065945 0.0313597 -0.00810127 0.0166943 -0.00858898 0.0229625 0.0108288 0.0331096 0.0145666 0.0122434 0.00652446 -0.00879167 0.0239064 0.0310436 -6.17248e-06 0.0204038 0.0216702 0.0251384 0.0259003 0.0200201 0.0293572 0.0219422 0.0146456 0.0319669 0.0340521
internal_weight=150116 48161.9 101954 45237.1 2924.82 44468 17589.8 1272.37 84364.7 383.987 2349.98 1384.91 44084 16317.4 26459.1 725.519 965.069 7707.98 546.85 8609.47 769.133 9394.33 559.669 209.464 17064.8 57905.6
internal_count=595000 463047 131953 449606 13441 446871 52191 7256 79762 2052 12862 9369 444819 44935 35102 5797 3493 24704 1459 20231 2735 15641 1844 891 19461 44660
is_linear=0
shrinkage=0.00871456


Tree=19
num_leaves=26
num_cat=0
split_feature=6 86 0 66 8 5 0 0 212 12 4 90 67 5 67 69 12 5 5 66 200 22 31 0 6
split_gain=600692 22748.8 14426.5 7550.14 4462.56 4053.37 2482.34 1567.59 1504.04 1436.78 1323.82 544.299 526.279 491.128 355.752 291.854 276.734 238.903 238.567 86.506 57.6314 80.6467 49.0347 41.7335 32.0723
threshold=4.5000000000000009 0.095454545454545472 19.500000000000004 0.22361111111111112 13.500000000000002 1.5000000000000002 51.500000000000007 50.500000000000007 1.0000000180025095e-35 1.5000000000000002 1.0000000180025095e-35 1.5473944294699014 0.14495798319327732 1.5000000000000002 0.14495798319327732 0.23381860075408464 2.5000000000000004 1.5000000000000002 1.5000000000000002 0.2958754208754209 5043.1148011855157 6146.6400000000021 8.5000000000000018 15.500000000000002 2.5000000000000004
decision_type=2 2 2 2 2 2 2 2 2 2 2 2 2 2 2 2 2 2 2 2 2 2 2 2 2
left_child=1 8 19 6 10 12 13 -7 -1 11 17 -5 -6 -4 23 -8 -11 -3 -12 -2 22 -22 -21 -10 -16
right_child=2 4 3 9 5 7 15 -9 14 16 18 -13 -14 -15 24 -17 -18 -19 -20 20 21 -23 -24 -25 -26
leaf_value=0.033234063706701018 0.028709507413811123 0.02664479779687141 0.014032023394475434 -0.0035147539170215995 0.031008968567505554 0.00025815467748195039 0.033475747046804283 0.038060477088295991 0.031167531011804514 -0.0070713412329333133 0.023026533740526781 0.02027806818150089 0.01888059911713184 -0.00050026737445018894 0.029222175886242093 0.017258796080918917 -0.0094399337587529834 0.023682955579493084 0.019793505163826296 0.023284368448674948 0.0072615329449746673 0.022284451964673338 0.018854878494316357 0.033067628040677706 0.02587537688574159
leaf_weight=56673.727238461375 129.4089931845665 8044.47264765203 245.86477242410183 2907.3960903063416 492.44686186313629 1432.301478356123 321.53369110822678 85.691680371761322 17237.181734606624 4240.6862220466137 3103.5816424638033 72.119622431695461 662.96580022573471 607.3247691616416 7209.3034917116165 129.52169450372458 36456.49532969296 3222.9090252816677 4681.4502246901393 536.44644025713205 68.543117567896843 48.858177080750465 506.43330825120211 1888.7481392771006 473.99099913239479
leaf_count=42550 277 16609 1213 25491 733 11509 408 103 19287 41700 8750 302 2356 4925 10924 583 376233 8486 16069 1622 321 153 1797 1656 943
internal_value=0.0188431 0.0303515 -0.00732433 -0.00814877 0.0224013 0.0118362 0.0124923 0.00246041 0.0324196 -0.00876599 0.0238816 -0.00291914 0.0241153 0.0037148 0.0306943 0.0289621 -0.00919372 0.025804 0.0210907 0.0213826 0.0204954 0.0139177 0.021193 0.0313602 0.0290257
internal_weight=151479 105209 46270.6 44980.9 21725.8 2673.41 1304.24 1517.99 83483 43676.7 19052.4 2979.52 1155.41 853.19 26809.2 451.055 40697.2 11267.4 7785.03 1289.69 1160.28 117.401 1042.88 19125.9 7683.29
internal_count=595000 139975 455025 450855 64615 14701 7129 11612 75360 443726 49914 25793 3089 6138 32810 991 417933 25095 24819 4170 3893 474 3419 20943 11867
is_linear=0
shrinkage=0.00871456


Tree=20
num_leaves=28
num_cat=0
split_feature=6 50 0 66 39 194 0 37 12 0 50 12 90 50 6 12 69 15 6 66 15 0 200 79 6 200 69
split_gain=577775 22415.6 14139.5 7449.82 5911.38 2638.78 2381.02 1952.5 1435.34 1046.2 807.778 544.748 530.51 418.384 362.653 277.599 276.283 234.909 124.132 81.7853 69.0481 61.2577 54.3374 83.4389 44.4185 39.1332 7.67487
threshold=4.5000000000000009 10.500000000000002 19.500000000000004 0.22361111111111112 19.500000000000004 1.6534516563260182 51.500000000000007 1.5000000000000002 1.5000000000000002 50.500000000000007 18.500000000000004 1.5000000000000002 1.5473944294699014 8.5000000000000018 2.5000000000000004 2.5000000000000004 0.23381860075408464 38.180000000000007 2.5000000000000004 0.2958754208754209 347.63500000000005 16.500000000000004 5043.1148011855157 2.5417196137606557 1.5000000000000002 3.7394725177068149 0.17787193973634655
decision_type=2 2 2 2 2 2 2 2 2 2 2 2 2 2 2 2 2 2 2 2 2 2 2 2 2 2 2
left_child=1 4 19 6 11 24 13 14 12 -9 18 17 -5 -4 -6 -10 -8 -1 -7 -2 -13 -12 25 -24 -3 -21 -26
right_child=2 5 3 8 7 10 16 9 15 -11 21 20 -14 -15 -16 -17 -18 -19 -20 22 -22 -23 23 -25 26 -27 -28
leaf_value=0.02345701469377913 0.028001653497461022 0.03241876997507874 -0.00049212318006430138 -0.0034934746920834226 0.025135516755753068 0.027646617936669855 0.032609805638601767 -0.0013685180131464449 -0.0070485555473366775 0.037397802437185892 0.030081687573704906 0.019259085371724546 0.019850209378893025 0.012544366404299151 0.012045865732598251 -0.0094275093916154715 0.016925214098146932 0.019586651417079565 0.024754993661779908 0.012755807014375018 0.015506440843819483 0.032498831684933949 0.0059398126975200201 0.020920586480191041 0.031577665759938714 0.021196309612518029 0.025541912556650448
leaf_weight=10225.194478526711 131.58460892736912 59712.624290019274 583.4534058496356 2899.6651167199016 319.26726350933313 8534.9471071511507 327.24370434135199 1300.8509465381503 4217.4304645508528 52.32288882881403 18967.903656303883 1885.837352052331 73.087676450610161 271.82235188037157 344.46182382106781 36187.597452364862 130.97182662039995 1487.9649514853954 1670.4067543447018 61.94862887263298 587.10051082074642 1361.7455882430077 59.85006170719862 58.534230902791023 128.2104686498642 994.45523964613676 214.15318160504103
leaf_count=26265 277 44528 4806 25491 771 14604 408 10917 41700 71 22208 6478 302 1332 1597 376233 583 4700 3870 248 2264 1161 289 185 123 3171 418
internal_value=0.0185172 0.0296387 -0.00730382 -0.00813037 0.020191 0.0313278 0.0122968 0.00621795 -0.00874975 0.00020107 0.0292257 0.0221757 -0.0029002 0.00367365 0.0184268 -0.0091798 0.0282644 0.0229705 0.0271806 0.0209269 0.0183882 0.0302482 0.0200669 0.01369 0.0323952 0.0207399 0.0280499
internal_weight=152791 106793 45997.6 44691.3 16203 90590 1313.49 2016.9 43377.8 1353.17 30535 14186.1 2972.75 855.276 663.729 40405 458.216 11713.2 10205.4 1306.37 2472.94 20329.6 1174.79 118.384 60055 1056.4 342.364
internal_count=595000 139975 455025 450855 53063 86912 7129 13356 443726 10988 41843 39707 25793 6138 2368 417933 991 30965 18474 4170 8742 23369 3893 474 45069 3419 541
is_linear=0
shrinkage=0.00871456


Tree=21
num_leaves=28
num_cat=0
split_feature=6 50 93 66 84 67 93 67 12 12 194 12 90 50 12 69 6 15 10 194 66 15 200 72 31 93 84
split_gain=556267 21400.5 13689.7 7343.97 5646.08 2625.44 2269.14 2183.07 1455.45 964.211 639.246 519.065 514.995 400.729 287.664 281.624 248.772 222.954 148.121 140.431 78.9152 65.5175 41.9381 51.6908 51.1677 32.3452 29.7583
threshold=4.5000000000000009 10.500000000000002 0.22792207792207794 0.22361111111111112 0.2166666666666667 0.11237373737373739 0.56070758509782914 0.14495798319327732 1.5000000000000002 1.5000000000000002 2.4643452718240897 1.5000000000000002 1.5473944294699014 8.5000000000000018 2.5000000000000004 0.23381860075408464 2.5000000000000004 38.180000000000007 19.500000000000004 1.0000000180025095e-35 0.36323411102172171 347.63500000000005 3145.7301410250097 0.11272719541558986 8.5000000000000018 0.22792207792207794 0.18333333333333338
decision_type=2 2 2 2 2 2 2 2 2 2 2 2 2 2 2 2 2 2 2 2 2 2 2 2 2 2 2
left_child=1 4 20 6 11 10 13 18 12 -9 -3 17 -5 -4 -10 -8 19 -1 -6 -7 -2 -13 24 -24 -22 -12 -18
right_child=2 5 3 8 7 16 15 9 14 -11 25 21 -14 -15 -16 -17 26 -19 -20 -21 22 -23 23 -25 -26 -27 -28
leaf_value=0.022943475871862386 0.025630214445870089 0.031653375330488419 -0.00052257409085233449 -0.0034220980348661214 0.021335656791604422 0.032116873064524966 0.031759592903044892 0.0067556394233103095 -0.0069868148978166761 -0.0072200245279920435 0.029458783293673241 0.018868615000215503 0.019438567680794556 0.012237259705328386 -0.0094136110300435949 0.016256296139517838 0.024844602670289855 0.01919320129027528 0.034516933640214624 0.027379914030576706 0.022512915489143106 0.015226572649898741 0.020495053490310462 0.010576937080595657 0.017740666461639212 0.031515760027452412 0.021515053505441067
leaf_weight=10362.411026358604 218.68815590441227 61531.694407209754 579.17706489562988 2896.5905438810587 178.43304120004177 605.88266982138157 334.43232445418835 1162.0767873674631 4198.6565119177103 550.00250275433064 14594.598933562636 1908.0476697832346 74.039627730846405 272.67396622896194 35922.370996676385 136.41092010587454 1242.0457774251699 1505.2149173021317 133.42292622476816 12125.771877765656 452.26537381112576 592.70742499083281 78.2945786267519 110.89871216565371 451.52144549787045 1320.787807226181 512.12776130437851
leaf_count=26265 512 45386 4779 25500 582 463 412 7499 41708 5151 16326 6478 302 1330 376234 609 2575 4700 124 19505 1325 2264 239 485 1590 1155 1502
internal_value=0.0182043 0.0289631 -0.0072834 -0.00810331 0.019783 0.0305993 0.0121037 0.00614286 -0.00872439 0.00225922 0.0312398 0.0217025 -0.00283334 0.00358361 -0.00916025 0.0273983 0.0271692 0.0224728 0.0272429 0.0276126 0.0204346 0.0180249 0.0193291 0.0149396 0.0201949 0.0296352 0.0239104
internal_weight=154051 108325 45726 44414.4 16392.3 91932.9 1322.69 2023.94 43091.7 1712.08 77447.1 14368.4 2970.63 851.851 40121 470.843 14485.8 11867.6 311.856 12731.7 1311.67 2500.76 1092.98 189.193 903.787 15915.4 1754.17
internal_count=595000 139975 455025 450874 53063 86912 7130 13356 443744 12650 62867 39707 25802 6109 417942 1021 24045 30965 706 19968 4151 8742 3639 724 2915 17481 4077
is_linear=0
shrinkage=0.00871456


Tree=22
num_leaves=27
num_cat=0
split_feature=35 5 5 0 93 85 17 0 90 194 92 39 12 5 5 0 67 5 38 212 92 220 200 212 0 38
split_gain=531117 20843.5 16210.2 7738.38 2590.67 2315.95 2005.5 2957.19 1415.38 1405.41 1206.52 1293.6 892.483 498.054 429.547 606.145 221.755 210.054 201.61 95.052 70.8811 77.1773 67.6132 45.5828 28.6088 0.560517
threshold=5.5000000000000009 2.5000000000000004 1.0000000180025095e-35 21.500000000000004 0.56070758509782914 0.07417582417582419 1.0000000180025095e-35 21.500000000000004 1.6173341677096371 2.1731916400904567 95.026843029069539 19.500000000000004 2.5000000000000004 1.5000000000000002 1.5000000000000002 19.500000000000004 0.14495798319327732 1.5000000000000002 2.5000000000000004 2.289769742609051e-05 19.954703757438441 0.097625477192467239 3533.8345519513355 0.68411598326742273 15.500000000000002 1.5000000000000002
decision_type=2 2 2 2 2 2 2 2 2 2 2 2 2 2 2 2 2 2 2 2 2 2 2 2 2 2
left_child=2 4 9 20 10 8 14 17 -5 23 11 -2 -7 -9 19 -16 24 -8 -12 -4 21 -3 -22 -1 -11 -18
right_child=1 3 6 5 -6 12 7 13 -10 16 18 -13 -14 -15 15 -17 25 -19 -20 -21 22 -23 -24 -25 -26 -27
leaf_value=0.030943762891455083 0.021248629383049097 0.0046933898259701717 0.029872664145112138 -0.00011322485784255566 0.031594521912679814 -0.0058961564927551679 0.021670622822089817 0.01396290135426791 0.027332733510887081 0.028820550388638309 0.026672754522903803 0.0026813710734045026 -0.009378681112942636 -0.004616896512099438 0.022383407013296656 0.0087900706026794312 0.027331838127332732 0.018693733076277131 0.016997791561315187 0.024792961236922467 0.021362429548327563 0.016457862630862338 0.012438712869420049 0.028013609664409151 0.030766294443212626 0.026011954942721058
leaf_weight=62002.988869085908 370.02103973925114 57.227177150547504 367.4995282292366 728.32560211420059 611.82829216122627 6656.1755851581693 3195.1436917483807 140.99566984176636 174.59053140878677 15577.491530954838 252.58802831172943 1216.9589347243309 35703.600996740162 457.67881587892771 3354.0381521582603 275.42052968591452 5446.3220167309046 4941.2313332110643 575.66940364986658 8538.6685374379158 473.99077509343624 216.17799004912376 93.818981513381004 747.54011991620064 1358.3977387845516 1728.0359702259302
leaf_count=44982 1072 290 492 5798 579 63970 8619 553 333 17166 431 9096 376557 4130 8356 1671 7857 16195 2263 17071 1457 816 385 905 1143 2813
internal_value=0.0179037 -0.00650952 0.0285445 -0.00802808 0.0156015 -0.00853752 0.0217189 0.0184953 0.00525696 0.0302152 0.0115168 0.00704263 -0.00883197 -0.000190138 0.0239603 0.0213605 0.0284028 0.0198702 0.0200325 0.0250123 0.0181089 0.0140819 0.0199628 0.0309102 0.0289819 0.0270247
internal_weight=155262 47131 108131 44103.9 3027.07 43262.7 21270.7 8735.05 902.916 86860.8 2415.24 1586.98 42359.8 598.674 12535.6 3629.46 24110.2 8136.38 828.257 8906.17 841.215 273.405 567.81 62750.5 16935.9 7174.36
internal_count=595000 463047 131953 449606 13441 446658 57087 29497 6131 74866 12862 10168 440527 4683 27590 10027 28979 24814 2694 17563 2948 1106 1842 45887 18309 10670
is_linear=0
shrinkage=0.00871456


Tree=23
num_leaves=28
num_cat=0
split_feature=35 5 50 0 68 0 0 5 90 69 50 84 17 68 50 50 5 5 50 15 50 69 214 17 200 50 214
split_gain=512021 20497.4 15790 7606.21 2699.9 2476.54 2042.15 2143.68 1591.5 1582.91 1196.37 1190.14 749.504 673.411 411.291 303.979 238.825 200.604 199.819 107.559 94.1873 59.1359 51.3488 44.4434 34.7971 18.6037 6.31308
threshold=5.5000000000000009 2.5000000000000004 12.500000000000002 21.500000000000004 0.063164893617021281 49.500000000000007 21.500000000000004 1.5000000000000002 1.6173341677096371 0.067231638418079109 8.5000000000000018 0.2166666666666667 1.0000000180025095e-35 0.12599206349206352 6.5000000000000009 19.500000000000004 1.5000000000000002 1.5000000000000002 4.5000000000000009 102.83000000000001 9.5000000000000018 0.20060975609756102 1.0000256714126223 735.50500000000011 3533.8345519513355 25.500000000000004 0.99999913935916485
decision_type=2 2 2 2 2 2 2 2 2 2 2 2 2 2 2 2 2 2 2 2 2 2 2 2 2 2 2
left_child=2 5 6 19 8 10 12 18 -5 22 11 -2 20 -6 -9 21 -12 -14 -8 24 -1 -11 26 -21 -3 -17 -4
right_child=1 3 9 4 13 -7 7 14 -10 15 16 -13 17 -15 -16 25 -18 -19 -20 23 -22 -23 -24 -25 -26 -27 -28
leaf_value=0.022232579802390094 0.020708861725106453 0.020678463578386749 0.029597399900721095 -0.00030307461977404563 -0.0049194031340129606 0.030724275781593327 0.011465863291980769 -0.0044047681610768696 0.025872851576161655 0.027123599881064227 0.021578269813346419 0.0017127627755887974 0.021219461684704538 -0.0091748001038914149 0.010289815075073386 0.027793498535480944 0.012394020577960237 0.018326521791609453 0.025149064093226061 0.0045942120003193655 0.024195409354100056 0.025396603441187861 0.028947019701705157 0.014359699686525739 0.013774603581699249 0.028867001520094228 0.030270455709417728
leaf_weight=5035.3563352078199 323.10787438601255 525.33534803241491 8253.469489350915 816.41901957988739 3061.2317367643118 628.76262308657169 108.69224533438683 505.32674472779036 222.11281391978264 3769.056457079947 671.56886705756187 1087.4901572093368 3234.5253257751465 38871.704912617803 199.42870682477951 7521.8330337703228 341.8202943354845 4996.1277641877532 452.33286693692207 49.616377517580986 4197.721290692687 5343.535843372345 4667.1167169213295 182.06306668370962 93.311609961092472 6038.5077034235001 55227.536354973912
leaf_count=11782 938 1607 7082 6488 28793 608 453 4547 477 5294 1765 8415 8619 410900 1144 8788 1715 16195 959 245 8492 8800 4595 732 364 6016 39187
internal_value=0.0176146 -0.00648832 0.0279277 -0.0080096 -0.00852074 0.0153355 0.0206348 0.00990916 0.00534548 0.0294309 0.0113115 0.00609896 0.0214102 -0.00886459 -0.0002168 0.0274137 0.0185267 0.0194707 0.0225748 0.0177601 0.0231324 0.0261194 0.0301008 0.0123647 0.0197099 0.0282776 0.0301843
internal_weight=156425 46874.5 109551 43821.8 42971.5 3052.75 18729.5 1265.78 1038.53 90821.1 2423.99 1410.6 17463.7 41932.9 704.755 22672.9 1013.39 8230.65 561.025 850.326 9233.08 9112.59 68148.1 231.679 618.647 13560.3 63481
internal_count=595000 463047 131953 449606 446658 13441 52191 7103 6965 79762 12833 9353 45088 439693 5691 28898 3480 24814 1412 2948 20274 14094 50864 977 1971 14804 46269
is_linear=0
shrinkage=0.00871456


Tree=24
num_leaves=27
num_cat=0
split_feature=6 86 93 66 8 5 49 4 194 93 4 93 5 93 69 5 6 5 4 66 200 22 118 39 194 214
split_gain=499194 18364 12942.2 7071.81 3467.99 3404.25 2085.07 1391.01 1338 1328.28 1066.81 595.87 407.486 352.191 200.572 200.391 194.79 193.037 107.148 72.1169 37.9486 54.9714 53.3775 36.6135 22.1913 0.618617
threshold=4.5000000000000009 0.095454545454545472 0.22792207792207794 0.22361111111111112 13.500000000000002 1.5000000000000002 2.1445993031358888 1.5000000000000002 1.5045162013982438 0.56070758509782914 1.0000000180025095e-35 1.0331501831501835 1.5000000000000002 0.50555624151129785 0.24333214793741112 1.5000000000000002 1.0000000180025095e-35 1.5000000000000002 3.5000000000000004 0.36323411102172171 3145.7301410250097 6864.6800000000012 1558.6450000000002 14.500000000000002 2.9074690351688122 0.99969091337500915
decision_type=2 2 2 2 2 2 2 2 2 2 2 2 2 2 2 2 2 2 2 2 2 2 2 2 2 2
left_child=1 8 19 6 10 13 14 11 -1 -7 15 -5 -8 -6 -4 -3 24 -12 -9 25 22 -22 -21 -18 -10 -2
right_child=2 4 3 7 5 9 12 18 16 -11 17 -13 -14 -15 -16 -17 23 -19 -20 20 21 -23 -24 -25 -26 -27
leaf_value=0.02962631188596403 0.020343407026374501 0.023848871731940599 0.029395333148693126 -0.0051594060454423036 0.019279760880361558 0.00023790858571539527 0.012875319898734812 -0.0085707633092245543 0.028795654903190311 0.034010960506910382 0.020691197436204782 0.017134501597209816 -0.0002530070727218075 0.031030198022061785 0.015359336317987507 0.021227809164444091 0.025832074955059289 0.01786845623552516 -0.0096359576469151973 0.016557330073423589 0.010318471982785659 0.020644533991934111 0.021264006560689698 0.027976686066584211 0.027593634134873556 0.026084944425719733
leaf_weight=62667.357909470797 89.416693650186062 8603.5575997978449 363.64790466427803 6011.5780656933784 969.91299107670784 1438.4788710102439 249.39061679691076 10503.084053352475 3483.6344219148159 91.473942413926125 3305.657565921545 89.72197563201189 621.13599171489477 256.20174543559551 113.02312259376049 3438.1389447450638 7670.783042550087 4959.2069595232606 25617.669555835426 457.77034671604633 128.33918134868145 66.457110956311226 477.53248424828053 1230.9484095424414 14498.695869982243 137.73185360431671
leaf_count=44119 237 16609 467 57142 2874 11514 1198 110942 3260 98 8750 481 4974 215 491 8486 11119 16069 275179 1548 525 199 1367 1385 15477 275
internal_value=0.0173363 0.0271342 -0.0072233 -0.00804928 0.0201938 0.011001 0.0115875 -0.00867666 0.0289208 0.00231778 0.0214397 -0.00482326 0.00353244 0.021803 0.026184 0.0231059 0.0272733 0.0190045 -0.00932702 0.0192511 0.018213 0.0141025 0.0190205 0.0261377 0.0278311 0.0241155
internal_weight=157541 112614 44926.5 43569.3 23062.6 2756.07 1347.2 42222.1 89551.4 1529.95 20306.6 6101.3 870.527 1226.11 476.671 12041.7 26884.1 8264.86 36120.8 1357.25 1130.1 194.796 935.303 8901.73 17982.3 227.149
internal_count=595000 139975 455025 450874 64615 14701 7130 443744 75360 11612 49914 57623 6172 3089 958 25095 31241 24819 386121 4151 3639 724 2915 12504 18737 512
is_linear=0
shrinkage=0.00871456


Tree=25
num_leaves=30
num_cat=0
split_feature=6 50 0 68 39 67 67 10 4 5 0 5 212 16 67 6 69 212 5 10 5 5 191 0 200 54 49 182 208
split_gain=482238 18209.1 12876.3 6586.49 4737.2 2289.79 1943.49 1886.25 1238.1 885.025 787.077 710.044 487.577 411.142 245.544 214.385 135.023 126.687 121.242 117.885 117.333 58.6292 42.2866 37.9465 32.6963 26.0899 23.9412 15.8506 10.3413
threshold=4.5000000000000009 10.500000000000002 19.500000000000004 0.063164893617021281 19.500000000000004 0.11237373737373739 0.14495798319327732 27.500000000000004 1.5000000000000002 2.5000000000000004 96.500000000000014 2.5000000000000004 2.289769742609051e-05 1.0000000180025095e-35 0.23606811145510839 2.5000000000000004 0.22866479925303457 1.0000000180025095e-35 1.5000000000000002 19.500000000000004 1.5000000000000002 3.5000000000000004 2.0253571428571431 15.500000000000002 5043.1148011855157 16.500000000000004 5.4833333333333343 0.48941622103386812 22.955000000000002
decision_type=2 2 2 2 2 2 2 2 2 2 2 2 2 2 2 2 2 2 2 2 2 2 2 2 2 2 2 2 2
left_child=1 4 21 7 13 12 19 11 10 -8 -5 -4 -3 18 -10 17 -9 -7 -1 -6 -15 25 -23 -14 -24 27 -17 -2 -27
right_child=2 5 3 8 6 15 9 16 14 -11 -12 -13 23 20 -16 26 -18 -19 -20 -21 -22 22 24 -25 -26 28 -28 -29 -30
leaf_value=0.021938320288585302 0.020349977461003515 0.029022574229200463 0.01282671180121114 -0.0053111025037222868 0.019997850905252527 0.029470717171493417 0.0073893358614592237 0.028719416343300982 0.010530286982060629 -0.005260706723951741 0.022255610706319075 -0.0013362057678706254 0.027229580544073245 0.019744995390878779 -0.0093259615000653839 0.020051033876012415 0.016873853042526473 0.025111032815838031 0.019871742985041893 0.031556337340214929 0.016827292826066133 0.010123767567089192 0.018457037371963751 0.028960404216346627 0.010840628468977874 0.025971940571623858 0.022894890233169693 0.01496485906774069 0.020469082537356308
leaf_weight=5525.3516702055931 245.91361591219902 61725.33638459444 415.57382798939943 5637.7929045855999 185.22383363544941 638.52880962193012 1008.5184214040637 291.04371458292007 45.000626131892204 715.50276665389538 77.028035297989845 749.68857630342245 17947.442442938685 1837.3529075086117 35940.315988242626 618.10981583595276 121.21324919909239 12767.915637344122 4504.2088267058134 141.58010669797659 3196.187466301024 78.170110017061234 557.9013978689909 1913.9361207634211 64.698139145970345 146.56825417280197 1224.2960244417191 115.51228173077106 174.20544341206551
leaf_count=12167 685 42799 1954 54345 582 463 6137 311 320 6513 382 6105 18503 4915 386986 1681 452 19505 12143 124 10482 316 1752 1565 264 313 2396 380 460
internal_value=0.0170684 0.0265812 -0.00720318 -0.0080401 0.0182881 0.0280462 0.00584985 0.00942563 -0.00870151 0.00213698 -0.0049282 0.00372986 0.0286287 0.0199799 -0.00930021 0.0249246 0.0253825 0.025325 0.0210164 0.0252413 0.0179034 0.0189473 0.016925 0.0274006 0.0177237 0.0209418 0.0219746 0.0187672 0.0231974
internal_weight=158610 113949 44660.6 43277.7 17113.9 96835.6 2050.83 1577.52 41700.1 1724.02 5714.82 1165.26 81586.7 15063.1 35985.3 15248.9 412.257 13406.4 10029.6 326.804 5033.54 1382.97 700.77 19861.4 622.6 682.2 1842.41 361.426 320.774
internal_count=595000 139975 455025 450855 53063 86912 13356 8822 442033 12650 54727 8059 62867 39707 387306 24045 763 19968 24310 706 15397 4170 2332 20068 2016 1838 4077 1065 773
is_linear=0
shrinkage=0.00871456


Tree=26
num_leaves=29
num_cat=0
split_feature=11 66 18 0 0 8 81 80 66 25 76 67 25 25 4 67 81 76 65 68 67 82 214 25 15 11 0 214
split_gain=463072 19146.1 15115.2 5657.24 2331.1 1950.97 2274.58 1926.89 1445.41 1027.2 1018.95 651.313 422.607 307.278 258.19 244.576 224.661 186.458 175.337 159.787 148.878 86.5815 50.5214 41.5748 34.7802 22.1344 19.7744 9.78098
threshold=6.5000000000000009 0.22361111111111112 1.0000000180025095e-35 19.500000000000004 51.500000000000007 13.500000000000002 0.10714285714285715 0.2142857142857143 0.14495798319327732 1.0000000180025095e-35 0.12613636363636366 0.22335600907029482 1.0000000180025095e-35 30.685000000000006 2.5000000000000004 0.22335600907029482 0.10714285714285715 0.61152570480928703 0.66421568627450989 0.05594679186228483 0.14495798319327732 0.071428571428571438 1.0000256714126223 6654.4250000000011 38.180000000000007 1.5000000000000002 15.500000000000002 0.99999913935916485
decision_type=2 2 2 2 2 2 2 2 2 2 2 2 2 2 2 2 2 2 2 2 2 2 2 2 2 2 2 2
left_child=2 4 10 23 8 9 15 11 13 21 22 -5 -8 -2 -9 -7 -11 -6 -10 -19 26 -4 27 24 -3 -22 -12 -1
right_child=1 3 5 7 17 6 12 14 18 16 20 -13 -14 -15 -16 -17 -18 19 -20 -21 25 -23 -24 -25 -26 -27 -28 -29
leaf_value=0.027775624929204119 0.019832647802842919 0.019941545894283461 0.023744614587441894 0.013570074559273757 0.029023402785206997 0.024412070241908685 0.012570395232385857 -0.0077379999012289011 0.0033579315979494176 0.020237505457225295 0.0265088021001346 -0.0035235282591467142 -0.0032902731844722507 0.0084544651141655741 -0.0095022356307074164 0.013493759823726015 0.017758732447347499 0.024730681959709368 -0.0061636813006387412 0.0062420555957943338 0.025968006839279644 0.02186532377666207 0.027168552942594751 0.011082404591203699 0.014161342555153859 0.024610161048309133 0.028213907279672653 0.028434353383836677
leaf_weight=8479.4542848169804 723.79353879392147 403.44837832450867 4183.1369295418262 174.31802276521921 768.85612150281668 523.6617698520422 157.24542198330164 8128.0871585235 534.20734389871359 5209.676006577909 10780.649723306298 3832.0327406525612 626.43062542378902 249.84228435903788 30007.887296408415 242.84753256291151 6856.6764845326543 95.929580070078373 199.29649352282286 60.231841407716274 3018.693182259798 5197.4411583393812 4829.3489584624767 85.710991516709328 151.1821151971817 5654.9951299279928 1439.8642630726099 57019.629373624921
leaf_count=7042 1938 1132 7320 1013 739 945 790 85156 3904 12872 11161 34650 5529 1415 326797 894 20897 202 1852 382 3752 10843 4600 345 554 8112 1138 39026
internal_value=0.0168101 -0.00672803 0.026169 -0.00813183 0.0160722 0.0198491 0.0103745 -0.00852289 0.0100047 0.0205323 0.0277616 -0.00276989 -6.95345e-05 0.0169494 -0.00912691 0.0210194 0.0188337 0.027202 0.000751912 0.0178587 0.0260454 0.0227106 0.0282703 0.0175236 0.0184516 0.0250914 0.0267164 0.0283503
internal_weight=159635 45414.8 114220 42782.7 2632.16 22997.1 1550.19 42142.3 1707.14 21446.9 91222.6 4006.35 783.676 973.636 38136 766.509 12066.4 925.018 733.504 156.161 20894.2 9380.58 70328.4 640.341 554.63 8673.69 12220.5 65499.1
internal_count=595000 460079 134921 449647 10432 60090 8158 447616 9109 51932 74831 35663 6319 3353 411953 1839 33769 1323 5756 584 24163 18163 50668 2031 1686 11864 12299 46068
is_linear=0
shrinkage=0.00871456


Tree=27
num_leaves=27
num_cat=0
split_feature=6 50 0 66 39 67 0 194 92 50 4 67 4 66 50 69 15 69 50 66 0 200 194 31 10 6
split_gain=451071 16983.6 12423.3 6831.78 4083.58 2203.89 1899.13 1844.79 1400.15 986.983 526.731 507.087 395.439 363.656 343.576 198.314 143.165 127.802 90.1029 68.3686 63.4624 44.8146 63.3358 41.6114 37.9222 27.5255
threshold=4.5000000000000009 11.500000000000002 19.500000000000004 0.22361111111111112 19.500000000000004 0.14495798319327732 51.500000000000007 1.6534516563260182 52.876611329708489 6.5000000000000009 1.0000000180025095e-35 0.14495798319327732 1.5000000000000002 0.32529069767441871 8.5000000000000018 0.23381860075408464 21.025000000000002 0.16727493917274941 16.500000000000004 0.2958754208754209 7.5000000000000009 5043.1148011855157 105.61759077118676 8.5000000000000018 9.5000000000000018 1.5000000000000002
decision_type=2 2 2 2 2 2 2 2 2 2 2 2 2 2 2 2 2 2 2 2 2 2 2 2 2 2
left_child=1 4 19 6 10 17 14 25 12 -7 20 24 -5 -10 -4 -8 -12 -6 -13 -2 -1 23 -23 -21 -9 -3
right_child=2 7 3 8 5 9 15 11 13 -11 16 18 -14 -15 -16 -17 -18 -19 -20 21 -22 22 -24 -25 -26 -27
leaf_value=0.022457308712758899 0.024402027917830783 0.027887309695371794 -0.00049743598498921482 -0.0064240120869908579 0.028114576476367985 -0.0015531527102632824 0.028160845625333733 0.026017874707462859 0.0047170152887541349 0.011875015193362187 0.018793937808736408 0.022992891349839829 -0.0093010893500373084 -0.0037312885552640953 0.011090513399245234 0.015243297874877564 0.016275125487331451 0.016567932460095983 0.024678121284690411 0.019885984440057066 0.020547524896686684 0.018124242193460014 0.0054575349717084646 0.0160526071451507 0.027818953102238995 0.024072364962434114
leaf_weight=2378.7376699000597 143.57374431192875 65212.815117284656 583.45540694892406 4086.2515694051981 302.7298621609807 1230.6199300810695 358.72814792394638 17953.750751763582 516.81310994178057 624.23285008221865 5727.1139328405261 5983.7125849798322 35240.871001876891 1511.5930113121867 287.94272363185883 138.39149585366249 2790.6873380690813 119.30080348998308 6146.7359744310379 589.03087404370308 6022.0732835754752 61.677819162607193 64.729661092162132 552.77435027062893 1681.1244733035564 306.00482485443354
leaf_count=4656 277 44447 4806 40553 398 10089 408 18478 3996 3022 15947 10434 385195 13982 1332 583 8691 411 8307 1622 13301 179 295 1797 1376 418
internal_value=0.0165609 0.0255504 -0.00716353 -0.00800441 0.0180533 0.00708263 0.0111347 0.0270291 -0.00863855 0.00297481 0.019528 0.0252912 -0.00900273 -0.00157328 0.00335015 0.0246775 0.0179747 0.0249897 0.0238526 0.0182465 0.021096 0.0174946 0.011926 0.0180771 0.0261762 0.0278706
internal_weight=160615 116480 44135.8 42724 19195.5 2276.88 1368.52 97284.1 41355.5 1854.85 16918.6 31765.3 39327.1 2028.41 871.398 497.12 8517.8 422.031 12130.4 1411.79 8400.81 1268.21 126.407 1141.81 19634.9 65518.8
internal_count=595000 139975 455025 450855 56515 13920 7129 83460 443726 13111 42595 38595 425748 17978 6138 991 24638 809 18741 4170 17957 3893 474 3419 19854 44865
is_linear=0
shrinkage=0.00871456


Tree=28
num_leaves=28
num_cat=0
split_feature=38 50 0 0 66 5 67 10 12 67 194 90 12 0 12 38 65 15 194 0 62 200 86 220 30 67 0
split_gain=432794 21700.9 8532.25 7767.76 4478.55 2782.48 2227.4 1835.11 1178.62 961.151 539.88 506.945 427.063 374.885 259.076 226.495 211.728 169.141 93.2038 63.1997 60.2107 52.6222 48.5928 61.3888 44.0977 33.9539 32.2512
threshold=4.5000000000000009 10.500000000000002 21.500000000000004 19.500000000000004 0.22361111111111112 2.5000000000000004 0.11237373737373739 24.500000000000004 1.5000000000000002 0.14495798319327732 2.4643452718240897 1.5392307692307694 1.5000000000000002 50.500000000000007 3.5000000000000004 1.5000000000000002 0.24568965517241384 38.180000000000007 0.85698945048724828 50.500000000000007 0.70698362939742265 4535.1214279625319 0.56832298136645976 0.37367990347289842 1580.4650000000004 0.6319659442724459 15.500000000000002
decision_type=2 2 2 2 2 2 2 2 2 2 2 2 2 2 2 2 2 2 2 2 2 2 2 2 2 2 2
left_child=1 2 12 21 7 9 10 16 11 -4 -3 -6 17 -7 -10 18 -5 -1 -8 -17 -14 22 25 -24 -9 -2 -12
right_child=3 6 5 4 8 13 15 24 14 -11 26 -13 20 -15 -16 19 -18 -19 -20 -21 -22 -23 23 -25 -26 -27 -28
leaf_value=0.019932964895366039 0.023520542373950019 0.027349790452422779 0.023860479241464297 0.0083320465152902576 -0.0036898709610753855 -0.0059731428771653688 0.02750149498854183 0.019856840136496193 -0.0077089437368720896 0.0075039099885842037 0.025414320114795143 0.018448359812681257 0.016246426850743026 0.0275726059286866 -0.0094784346687398421 0.021794112695257852 -0.0021276256987436972 0.016802659219787942 0.023959624553083134 0.028520317369697172 0.011860710542640313 0.010552757375448562 0.010800857427009031 0.018055717960958444 0.027943985358401275 0.017207753145954064 0.027192151148804911
leaf_weight=11375.725091017783 182.79310056567192 66966.555355727673 345.66633372008801 210.79162246733904 2496.9753565192223 1481.8452694937587 764.64510999619961 120.12695131450891 8140.265124373138 1288.890457354486 15786.279027789831 78.324860893189907 2608.2211974188685 22.993755467236042 29476.126748673618 5654.6196389198303 468.01123061031103 1639.5619891360402 9448.8783918321133 140.37858464568853 311.24746146798134 101.14228288829327 157.27873058617115 291.92965105175972 239.75696757435799 202.56060938537121 1551.5712253451347
leaf_count=26621 425 45386 692 1079 22659 14264 583 322 86458 7812 16236 308 8310 79 325757 10742 3953 4737 13370 110 1114 389 589 868 301 586 1250
internal_value=0.0163204 0.0247971 0.0162718 -0.00767986 -0.00824375 0.00313586 0.0264176 0.00960164 -0.00870567 0.011 0.0269863 -0.00299584 0.0188586 -0.00540802 -0.00909622 0.0234182 0.0011353 0.0195426 0.0242326 0.0219713 0.015792 0.0171136 0.0178663 0.0156065 0.0254285 0.0203596 0.025578
